2000 128
<pad> -1.525596 -0.750232 -0.653981 -1.609485 -0.100167 -0.609189 -0.979772 -1.609096 -0.712145 0.303722 -0.777314 -0.251455 -0.222270 1.687113 0.228425 0.467636 -0.696972 -1.160761 0.699542 0.199082 0.865692 0.244404 -0.662911 0.807308 1.101681 -0.175936 -2.245558 -1.446458 0.061155 -0.617745 -0.798070 -0.131623 1.879346 -0.072132 0.157771 -0.773455 0.199057 0.045703 0.152957 -0.475679 -0.111020 0.292735 -0.157845 -0.028787 2.357111 -1.037339 1.574798 -0.629847 -0.927392 0.545142 0.066280 -0.437040 0.762601 0.441511 1.165138 2.015392 0.137412 0.938645 -0.186001 -0.644639 1.539246 -0.869588 -3.331154 -0.747872 -0.025502 -1.023331 -0.596185 -1.005531 -0.210606 -0.007548 1.673427 0.010343 -0.703957 -0.185266 -0.996235 -0.831255 -0.461022 -0.560082 0.395576 -0.982277 -0.506487 0.099775 -0.653973 0.731694 -1.434386 -0.500813 0.171633 -0.159993 0.254633 -0.501957 -1.041200 0.732267 -1.048340 -0.470877 0.291136 1.990704 0.661445 1.189921 0.816534 -0.913524 1.385146 -0.813846 -0.927577 1.111963 1.335206 0.604274 -0.103442 -0.151217 -2.102083 -0.620022 -1.478231 -1.133417 0.873796 -0.560259 1.285784 0.816824 0.205304 0.305107 0.535687 -0.431185 2.558138 -0.233364 -0.013472 1.860635 -1.980406 1.798583 0.101812 0.340006
<start> 0.712365 -1.776507 0.353865 1.199613 -0.302997 -1.761842 0.634845 -0.804359 -1.611112 -1.871613 0.543084 0.660679 2.295212 0.674906 1.713322 -1.794273 -1.363267 -0.983220 1.511267 0.641871 0.472964 -0.428590 0.551371 -1.547371 0.518112 0.106535 0.269241 1.324768 1.746019 1.854969 -0.706369 2.557086 0.417534 -0.212719 -0.839958 -0.420018 -0.624036 -0.977296 0.874843 0.987281 0.309576 1.520690 1.205234 -1.815591 -0.403462 -0.959145 -0.005208 -0.078863 0.843654 1.165701 0.526932 1.619253 -0.963976 0.141520 -0.163661 -0.358223 1.722279 -0.303576 0.238874 1.344001 0.103226 1.100354 -0.341680 0.947339 -0.568516 0.837596 1.783661 -0.195425 0.514916 -1.847478 -2.916743 -0.567330 -0.541280 0.895174 -0.882507 0.531811 -1.545777 -0.173300 0.728246 0.057061 0.905517 1.046295 -0.520597 1.354784 0.235193 1.914243 1.836411 1.324532 -0.969009 1.251636 1.210324 -0.527921 0.218566 -0.574307 1.457125 1.770956 1.649914 -0.432005 -0.271027 -1.439163 1.247040 1.273851 0.390949 0.387210 -0.079829 0.341724 0.948827 -1.383936 1.724086 -2.364765 -0.929491 0.293625 0.215132 0.938464 1.465708 -0.556474 -0.744841 -0.202157 -0.229668 0.001331 0.375276 -0.581068 -0.572309 1.009717 -0.105649 -1.179696 -0.090780 0.563114
<end> -1.256014 0.895555 0.167477 0.751421 2.414230 1.020584 -0.440484 -1.734168 -1.236225 1.578581 -1.116051 0.767770 -0.588207 2.118890 -0.542190 -2.459255 -1.110829 -1.118721 0.757996 -0.495658 -0.197000 -0.033396 0.719292 1.064415 0.834025 -1.916216 -0.342029 -0.660492 0.315085 1.142252 0.305506 -0.578882 -0.238283 -1.354174 0.268689 0.114557 -1.556297 -1.075744 -0.875195 -0.472819 0.991237 -0.058622 1.178765 0.622185 0.787850 1.368552 -0.850690 0.512607 1.047632 -0.317585 0.139485 2.340262 -0.611609 0.816027 0.247723 -0.386727 0.199485 0.799270 -0.261903 0.151330 1.198167 -2.283258 -1.012959 -0.887891 0.652219 -0.872620 0.035254 -0.336530 1.402332 0.484121 -0.703045 -0.826766 0.774396 0.691994 -1.018480 -0.803372 -0.707113 0.752118 -0.019208 1.103333 -0.606792 -0.525223 -0.566188 0.000660 0.722459 0.152635 0.144960 -2.344219 0.360003 0.466682 1.283067 1.267801 0.198833 0.544088 -0.397817 -1.929106 0.232369 0.861466 0.621757 -1.781190 -0.782061 -1.423670 1.609076 -0.032788 0.853233 0.055064 -1.742537 0.875004 -2.718817 -0.221921 0.342085 1.109348 -0.573148 0.957785 0.000982 -1.384769 -0.996502 0.807348 1.173886 -0.939846 1.310919 -0.316707 -0.186104 -0.576460 0.686652 0.420867 -1.021381 0.988567
<unk> -0.561967 -0.158012 1.503653 -1.395110 0.800562 -0.661361 1.256173 0.499617 -0.271367 1.846666 -0.031462 -0.093692 -0.619021 -0.636028 -0.424362 -2.026420 0.409313 -1.542377 -1.012664 -0.029623 -0.289344 0.152332 -0.298704 -0.131409 -0.627721 1.196614 0.610784 -0.454742 -0.959909 0.276636 -0.680254 -0.546012 -0.454558 0.318576 -0.354474 0.685346 -0.376732 -2.410219 -1.277749 -0.062565 -0.094719 -2.313848 0.556518 0.505348 -0.207140 0.693274 0.419305 2.251751 0.937946 1.425359 1.507908 0.105459 -1.604769 -0.106410 0.246802 0.612591 0.740015 -0.178567 0.078415 -0.439891 -0.361012 -1.261244 1.913556 -1.861266 -0.009531 0.260493 0.281941 0.258519 -0.426655 0.980437 1.858448 -1.091599 0.762666 0.227575 -1.456279 1.704025 -3.267725 0.475085 -2.113352 -1.499591 1.068853 1.438894 0.506571 0.834966 1.175105 -0.341843 -0.387315 0.547763 -0.158841 -0.736135 -0.233696 -0.540621 0.157074 -0.597275 -0.883715 0.607838 -0.387960 -0.031109 -0.560348 -0.655901 0.725619 0.678643 -0.429998 -0.385182 -1.508022 -0.719568 -1.190744 1.326593 -2.197730 0.286145 -0.201034 -2.534147 -1.584301 0.216898 -0.142847 1.426685 0.164386 -0.315687 0.128522 -0.527122 1.083580 0.727320 0.576912 0.537027 -0.436173 0.276793 0.294704 -0.563016
the 0.518445 1.338966 -0.238666 -0.068627 -0.150342 0.523566 -0.211176 -1.253729 0.018118 1.413893 -1.743394 0.113058 0.452317 0.315552 -0.690142 -0.282595 0.355907 -0.656749 0.674579 1.290517 0.286960 1.131065 -0.002729 -0.235392 -0.777716 0.017704 1.186427 -0.595535 -1.572888 0.900507 1.048828 0.428637 0.347073 1.195475 0.051017 -2.404082 0.662691 -0.397039 0.404193 0.341650 -0.595678 1.101356 0.553759 -0.950601 -0.503329 1.735122 1.136103 0.734878 -0.637429 -0.888428 0.597190 -0.618879 1.208356 0.809447 -0.372112 -0.532774 -0.499083 0.039850 -0.781353 0.319092 0.820465 0.864246 0.490771 0.444513 -0.886830 0.529716 0.268353 0.350391 -0.272553 1.066245 -0.894792 1.414280 -0.917077 0.836889 1.494930 -0.829864 -1.989537 -0.877265 0.220615 -1.953825 0.852696 -1.418381 0.982769 -0.539374 0.138051 0.924433 0.293527 3.029275 -1.425147 0.335865 -0.061046 -2.781977 1.348400 0.268568 -1.127156 -0.598784 -0.278889 -0.219317 1.131233 -0.558474 -0.850106 -0.591236 0.918353 -1.705367 -0.624483 -1.546775 -0.439427 -0.828829 -0.427289 1.299220 -1.019724 -0.853100 -1.846495 -0.562704 -0.293447 -1.572523 -1.007563 -1.124849 2.082957 0.284965 -0.208677 2.793835 0.946479 1.161077 0.021246 2.184263 0.370597 0.831991
and 1.029012 -0.467351 1.209693 -0.929514 1.595838 -0.034895 0.192806 0.944281 0.402816 0.783333 1.623568 -1.967727 0.929546 1.597882 0.425856 2.506570 0.440824 -2.039411 1.062588 0.775795 0.082846 1.707098 -0.208211 -0.272054 -0.652083 2.318504 -0.315518 1.228969 0.019231 1.693522 -0.974465 0.099736 0.163654 1.110095 0.658646 -0.184584 -0.698133 0.546333 -1.092028 -0.200451 -0.219901 -0.750516 0.910437 1.499095 -0.276872 0.099166 -1.575291 0.748235 -0.242574 -0.179450 0.958230 0.378114 0.192780 0.247109 -0.311257 0.044730 -0.769841 0.456411 -1.314710 -0.507367 0.417203 0.926284 0.635065 -0.161700 1.028524 0.047703 0.414809 -2.699852 -1.504364 -0.186197 -0.931674 0.305457 -0.510308 0.879068 1.773642 -0.132636 1.345442 -0.463985 -0.373912 0.970489 -1.951532 -0.649848 1.348078 0.309222 -1.521075 0.975869 0.390718 0.028176 -0.417096 1.705746 -0.251080 -0.033867 0.583455 1.617440 -1.373083 -0.855125 1.577649 0.107776 1.104509 0.597018 0.070790 -0.503626 0.803182 1.182736 0.637819 -0.502313 -0.997337 -0.564063 -0.345943 0.270795 -1.357472 -0.960934 1.176470 0.119907 0.661014 1.798764 -1.472206 -1.452340 0.256187 -0.752200 1.214190 0.536613 -0.591696 1.135962 1.445667 -1.143308 0.788830 -0.676669
to -0.932525 0.074149 0.211168 0.026035 -0.022383 -1.507856 -2.726677 -0.859434 -0.467362 1.549785 0.449924 1.297051 0.299468 -1.023617 1.026498 -0.192257 -0.482687 0.068261 0.363102 -0.399569 1.341289 -0.665564 -0.215715 0.332042 -0.124228 -0.637448 -0.084269 -0.378753 -1.793591 1.367761 0.021851 0.983302 1.337811 -0.071339 -1.646348 0.840613 -0.310401 -1.047897 -0.933396 0.245438 0.346635 2.550991 -0.807021 3.362096 -0.738776 0.227985 0.988429 -2.140897 -1.841279 -0.619250 -1.179877 -0.850645 1.284827 -1.227318 -0.371913 1.082356 -0.709792 2.863473 1.095064 0.779599 1.770975 1.748266 -0.660084 -1.196243 -0.261057 -0.000592 1.552354 -0.925109 -0.846096 0.158819 0.856376 -2.089378 -1.214870 0.178441 0.695738 0.031288 -2.266876 0.093794 0.482256 0.082766 0.876472 1.454264 0.037367 0.965365 0.195961 -0.950482 0.129930 0.862914 0.494524 1.152491 0.172810 0.397013 -0.447530 0.458726 0.737409 -1.181619 -0.800785 -1.576915 -0.916993 -0.231452 1.046475 -1.591522 0.081395 1.082639 -0.579351 -0.594649 0.071259 0.341882 0.886468 -0.895112 0.135858 0.657820 -0.909955 -0.142161 0.298773 1.456563 0.230357 -0.147733 -0.635686 0.353775 -0.031861 -0.568286 -1.424119 -1.324197 -2.082111 -0.632092 1.599141 1.933935
a 0.592901 1.819104 -0.879036 -1.178213 0.250214 0.367989 -0.509745 -0.099212 -0.508157 1.239640 0.423597 0.266878 0.076647 -1.078698 0.793148 -0.616787 -1.517347 -1.013675 1.375765 1.439492 -2.247876 1.320737 -0.539329 0.389749 -0.846480 -2.151309 0.247240 -1.446359 -1.214330 0.288490 -0.851436 -0.866135 -1.140973 -1.907178 -1.194330 -0.097984 0.642856 0.800155 0.408943 0.301846 -1.009479 1.066035 -0.026619 -0.410506 0.983937 -1.827557 -0.658325 -1.551463 -3.945107 1.136394 0.454283 -1.041755 0.932331 0.878059 -1.386025 -0.153209 -0.521781 -0.097955 0.333731 0.627535 -0.085052 -1.218743 -1.790059 0.699457 0.995858 -0.219788 0.139714 -0.251659 -0.260217 -1.359067 -1.212530 0.934439 -0.464927 0.240253 -0.199533 0.025950 2.788823 1.633415 0.962384 0.254671 0.636515 -0.889283 -0.809053 1.709667 0.990886 0.319163 -1.269141 1.783620 1.300449 0.251454 1.400222 -0.700726 0.330381 1.615869 -0.470013 -0.656272 -1.511339 0.190803 0.204444 0.163597 -1.294515 -0.128560 -0.057158 -0.071273 1.165463 0.170229 0.528513 2.888534 0.160116 -0.363673 -0.913837 1.590637 -0.439368 0.449510 -2.012700 3.087080 2.921172 -1.552097 -0.540093 0.470881 -0.939444 0.199828 -0.397523 2.057980 0.001485 0.163650 0.841400 1.056003
of 0.893374 -1.056002 -0.177625 -0.450615 0.114328 -0.968696 0.408826 -0.830109 -0.974677 -0.594790 -1.298308 0.542555 0.086627 -0.701074 0.731082 -0.340349 -0.476579 -2.044454 -0.186068 2.256950 1.883021 -2.023534 -0.167490 -1.373771 0.073684 0.102660 0.559023 0.585418 -0.537654 -0.332410 -1.786275 -0.159323 1.404687 -0.611024 -0.478884 1.231516 1.528332 -1.657158 0.081910 1.176362 0.301113 0.229510 0.080326 1.656403 0.047139 -0.034357 -0.026853 -0.377232 0.648032 -0.871688 0.339437 0.238057 0.931192 -2.495803 0.792262 1.110588 -0.121762 -0.546454 -0.235900 -0.418826 -0.184684 -1.491756 0.542767 0.521094 0.743725 -2.043403 -1.282496 -1.439678 -0.127782 -0.188218 1.615977 -1.089466 0.010024 0.836131 1.205121 -0.068188 -0.487426 -0.496889 1.469016 0.037687 0.420830 -1.742925 -1.658025 1.724452 1.353499 1.651008 -0.017845 -1.226491 0.635673 -0.777482 -0.055778 -0.044510 2.085586 0.105183 0.019856 -0.679907 1.155606 -1.022888 0.919854 1.301401 0.938554 0.846002 0.280859 -1.305470 1.639250 -1.914936 -1.865430 -0.670618 0.042379 -0.535182 0.659357 0.342335 -2.175866 -1.270810 0.370841 -0.265910 -0.162383 1.770364 2.394281 -1.071643 -1.237051 1.153906 0.835166 1.760625 0.034183 1.138279 1.646922 -0.384928
it 0.518609 0.034223 1.057356 0.175069 -1.006122 0.858239 0.457494 -0.630245 0.338710 -0.718506 -0.500836 0.713318 2.360069 -0.182561 0.540906 -0.718594 -0.121738 0.327047 -1.049557 0.250183 1.710848 0.912618 -0.289805 -0.199505 -0.423639 -0.076925 0.536102 0.648459 0.133025 -0.120294 -1.149890 -0.711568 -1.319958 -0.278121 -1.471748 1.267985 0.744883 -0.381629 -1.830893 -0.579860 0.127250 1.643651 -0.310978 -1.057108 -1.671387 1.243403 1.408809 -1.730335 0.880442 2.528712 0.860024 -0.706302 1.136012 -0.242918 0.240345 0.300391 1.247558 1.036430 -1.405535 -1.286149 0.787933 -0.045786 -0.837603 -1.232800 -0.011469 0.069318 -1.139452 -0.360063 -0.394178 0.094806 0.683836 0.990531 -2.504643 0.845495 1.125140 0.261857 0.999076 0.626754 -0.754711 -1.445244 -2.030163 0.313434 -0.551545 0.808674 -0.410946 0.556698 0.592250 0.450404 -0.930086 0.642188 -1.927975 0.449124 0.891712 0.774266 -0.969600 -0.675884 -0.346424 -0.710125 1.600574 -0.943674 -1.196637 -0.498093 -0.412190 0.636613 0.309373 0.103624 -1.825004 -1.088436 -1.512173 -0.004674 1.554455 1.733211 1.775923 0.176041 0.508303 -0.035827 0.453160 1.099257 0.414846 0.420824 -3.252981 -1.096805 2.344058 2.189489 0.582572 0.564274 -0.870762 1.083078
she -1.187523 -1.061445 0.662933 -1.003742 1.011169 -1.239391 -1.976704 1.199246 0.046517 -0.506356 -1.149687 -0.514969 -1.351533 0.380668 -0.053982 -0.658544 -0.180340 -0.411455 -0.553770 -0.186627 -0.556591 0.441955 -0.893490 1.364811 -0.155372 -1.194519 2.443329 -0.733572 0.859184 -1.036233 1.177574 0.687112 0.769098 -1.660647 -1.107830 1.176786 -0.873079 1.260232 1.096706 0.327084 0.971045 -0.312069 0.285602 -0.164311 0.794680 -1.144584 0.587973 0.051302 -0.569407 -0.528921 0.864044 -1.106148 0.067782 1.753522 0.581105 -1.399644 -0.941090 0.353684 0.357380 -0.633423 0.363950 -0.796592 0.316148 1.529990 0.263392 -0.494443 0.727299 -1.014243 1.085875 1.033616 -1.211316 -0.715853 0.662361 0.385320 -0.132994 0.409739 0.588769 -0.829844 -1.161324 -0.434199 1.301206 -1.446889 0.234146 -0.787280 1.509030 -0.957311 1.826659 1.721631 -0.263070 1.297738 0.762004 1.837280 2.372029 -0.103544 -0.206694 -0.161836 -2.037303 0.750528 -0.111210 1.562533 1.544372 -0.371654 -0.755417 -0.021427 0.222929 1.015672 1.190397 -1.055025 -0.895084 1.028957 0.603633 1.546539 -0.790763 -0.335296 -0.056966 0.546133 0.187813 0.293522 0.999240 -0.111648 0.442620 2.474469 0.332399 1.544215 0.261711 0.721116 -0.129646 1.231627
said -0.419448 -0.405097 0.408224 1.744096 -0.022780 0.053780 -0.420181 -0.405404 0.002890 -1.883285 -1.483756 0.820036 -0.069252 0.214045 -0.370181 -0.612808 0.569034 -1.481518 1.128908 -1.770240 1.360742 0.613508 0.010988 0.511391 -1.187853 -0.254596 -0.119460 0.641043 -0.045235 2.277237 -1.369252 0.524379 0.556227 -0.754345 -1.750076 0.119655 0.014534 -1.579213 -0.526463 -1.545097 1.842991 1.103486 -0.024617 -0.359932 -0.070957 0.455166 0.648061 0.084274 1.512051 -0.071387 -0.808235 -0.190469 -0.982114 0.424329 -0.610851 -2.136197 0.740644 0.391708 0.446856 0.005937 0.856354 0.991261 1.638352 0.173137 -0.284338 0.652489 1.487394 0.448833 -1.186611 -0.414508 0.054566 0.736327 2.136799 -0.711622 -1.154758 0.006586 0.264021 0.246636 0.244229 1.026037 -0.811055 1.533079 -1.385260 -0.921886 -0.559456 -0.513471 -1.042014 0.677794 0.150675 0.448021 0.100073 1.542115 0.978441 1.608636 0.854490 0.729680 0.683862 0.662539 0.937959 -2.079955 1.429927 1.405092 -0.855777 -0.506692 1.019520 -0.931425 -0.197272 1.054025 -1.251075 -0.274909 0.163481 1.184218 1.147732 -0.731283 -0.214688 -1.084472 -0.175666 0.324095 -1.150031 -1.086158 -0.415256 1.101160 -0.172252 0.298701 0.859062 1.866042 -0.083715 -1.533503
in 0.709079 0.628299 1.702576 1.097894 0.747715 0.403982 0.488455 0.160469 0.747717 -1.167560 0.669301 1.121943 -1.374859 -1.372078 0.084625 -0.643530 0.464602 -1.343188 -0.354964 0.158819 1.374031 -1.996393 -1.792006 -0.074491 0.871406 0.260013 -0.536133 -1.038416 0.015143 0.524063 -0.200049 0.715560 -2.102423 -0.684236 0.213663 0.456300 0.595032 -0.508478 -1.365933 2.232455 -0.271927 0.668625 -0.039249 -0.491459 -1.047209 -0.123502 -0.197516 1.900100 -1.051277 -2.558908 -0.341555 -0.298140 1.444580 -2.313102 2.206313 0.600263 -0.703904 -1.426075 1.173835 0.147110 -0.943788 -0.767851 -0.403273 1.059295 0.287972 -1.180203 0.672472 0.941651 -1.714260 0.399588 1.523059 -2.272599 1.015017 0.128452 -0.007185 1.859224 0.919057 0.603142 -1.822648 -1.269019 -0.013479 -0.647376 0.416179 -0.012997 -0.916791 -0.190398 -0.166060 1.046492 1.569264 1.869420 -0.958427 -0.015906 -0.803571 -1.095677 -1.503029 1.244543 -0.041512 0.348263 0.126360 -1.262721 0.042380 -1.813500 0.081244 -2.454862 1.245218 -1.210576 -0.135589 0.518581 1.165251 1.042202 0.198557 -1.004183 -0.471897 0.844117 0.618815 -1.715689 2.223007 -0.392991 1.654457 -0.915349 -1.501175 1.065988 0.305834 0.153497 1.198540 -0.836820 -0.336435 0.648260
you 0.992536 -1.259587 -0.770498 -0.292556 0.490797 1.195740 -0.145446 -1.051071 0.648251 0.359725 0.063938 1.095814 -1.319486 -1.806606 0.396001 0.492241 0.692340 -0.712004 0.280421 -1.666745 -0.230943 1.503495 0.045029 -0.105789 -0.609929 0.966440 1.451596 -1.943151 0.176816 0.409644 0.664337 0.425503 0.539678 -0.407855 0.177799 -1.632084 -0.376378 -0.110574 -2.125223 -0.718262 0.971972 -0.454007 -0.075146 0.589156 0.070603 -1.070214 -0.882313 -0.493389 0.621019 -0.502629 0.548198 0.789031 -1.695840 -0.894774 -1.182796 -0.267165 -1.583158 -1.531503 -0.074686 0.313364 -0.899176 -0.959474 0.719038 2.788660 -1.199337 0.425860 0.177944 1.935626 -0.796812 0.937887 1.448665 0.790251 -0.596388 0.000756 -0.802897 0.699479 -0.354361 0.023220 0.691340 -0.557295 0.467369 -0.467235 -0.857279 1.817394 1.182526 -1.329712 0.581217 0.527181 -0.538897 -1.048871 -0.861604 1.771111 0.869967 -0.978321 0.579661 -0.720080 -1.826792 0.368074 0.512132 -0.658565 -0.656748 0.441329 -0.147091 -1.132926 -1.277109 -0.746734 -0.359288 -2.799630 -0.315928 -0.138515 0.522707 0.695993 1.926411 0.716442 -0.171539 -1.355001 -0.021333 -0.891057 -0.075445 1.516701 -1.194294 0.541063 1.700828 -0.181549 -1.502180 0.424630 0.385237 -1.269301
i 0.455389 -1.263661 0.216513 0.795356 0.851296 0.086408 -1.573227 -0.637151 -0.604346 -2.138721 1.171935 -1.497313 1.094192 -1.328856 1.254250 -0.939322 -0.180733 -0.443246 0.898552 -0.818229 0.294645 -0.251270 0.735536 -0.041819 1.061867 -1.276794 -0.225600 -1.336739 1.599029 -0.155061 2.261124 -0.449315 -0.813057 1.180440 0.487636 -1.414916 -1.159543 -0.082761 -0.500760 0.116466 0.910924 -0.444808 0.099402 0.953947 -2.456934 -0.570569 1.402476 0.801236 1.014597 0.090068 1.104235 0.283397 0.409873 1.046281 0.380511 -0.365059 0.898334 -0.289180 -0.672096 0.570708 -0.939480 -2.213328 0.180095 -0.670318 -1.345019 -0.967446 -1.855669 0.390105 0.858290 0.632675 -0.053361 0.118071 -0.888277 -0.348985 -0.419776 1.055288 -0.636587 1.622480 0.291168 0.063005 0.005334 0.189905 -0.259526 -1.766314 0.880762 -1.406649 2.329132 0.172443 -0.063431 -1.379897 0.801002 0.400436 2.708509 -0.439105 0.329034 0.547763 -0.068884 -0.645741 1.185848 0.443593 -0.816996 -0.221627 0.320140 1.232346 0.371737 0.855265 0.441406 -0.096928 -0.304905 -1.780900 -1.175984 -0.502442 0.364568 0.222115 0.325181 0.584054 0.306344 1.508694 0.242839 -1.462995 -0.451744 -1.411111 0.179182 -1.405673 0.681122 0.310926 -0.473045 -0.867087
alice 0.425111 -0.173356 1.406486 -0.740416 -0.264280 0.173736 -0.297551 0.857306 0.779651 0.316263 0.047375 0.345825 0.385643 -1.058084 0.256182 -1.417077 -1.240385 -1.348467 -0.885031 0.390839 0.494402 -0.324604 0.530876 -1.699089 1.993845 0.155750 -0.116377 0.177825 -0.284382 0.836717 0.362183 0.084435 -0.332310 0.539512 0.526826 0.508526 0.111537 -1.534315 -1.344223 0.736202 -0.119868 -1.166882 0.332798 0.854960 -0.926278 -1.266593 -1.591732 -3.215386 0.302420 0.798305 -0.867969 -0.547249 1.363375 -2.161207 -0.635872 0.624198 -1.817914 -1.420737 0.050666 0.732304 0.016012 -0.422388 -0.914277 0.689526 0.149510 -0.010708 0.498507 2.275914 -3.070764 -0.969382 -0.110490 0.079679 -0.503381 0.011931 2.044081 -1.322760 1.049107 -2.216108 1.083339 1.598941 0.396585 -1.049639 1.713882 1.597909 -0.792399 2.991040 -0.556997 -0.116279 0.942857 -0.593100 -0.489649 0.964204 -0.722142 0.777699 0.471627 1.229614 -1.111604 0.280767 0.278965 -0.040339 0.389681 -0.792906 -0.668807 2.087788 -0.392190 0.503338 1.376307 0.235809 1.314977 -0.324459 -0.029597 -0.889561 1.024623 0.346703 2.086068 -0.823998 -0.407526 1.877195 2.188362 0.367896 0.628987 0.641120 0.981980 1.134309 -0.910746 0.531243 0.155946 0.171547
was -0.277471 -0.000762 -1.351774 -1.720961 1.160229 -0.195439 1.288481 0.337241 -0.685253 -1.832453 -1.977883 -2.910744 0.248352 0.347773 2.667813 -0.494140 0.518289 1.053865 1.543519 1.874701 0.346736 0.257665 -1.751811 -1.383731 0.466677 -0.477216 1.842896 -0.841688 -0.426334 -0.326602 1.205205 -0.387575 -0.271294 1.151545 0.610490 1.110311 0.191317 -1.833146 -0.407215 -0.440927 -0.313823 1.310268 1.064094 1.688353 0.803906 -2.187938 1.848390 0.835316 1.044977 -1.247834 -0.569566 -0.320054 0.455362 -1.527781 -1.845564 1.920248 1.642845 0.435312 -0.517408 0.896253 -0.843805 0.556448 -0.643201 0.941098 -1.916896 -0.170107 0.698130 0.296033 -1.744961 -1.164879 -0.808231 -0.203093 -0.524549 -0.583582 -0.922523 -0.325251 1.096146 0.384915 -1.388924 0.430182 -0.701494 0.284326 0.131744 0.488763 -1.284675 -0.395155 -0.863553 -0.267890 0.459833 0.010657 -0.046079 0.548605 0.047355 -1.182301 -0.898683 1.280250 0.098425 -1.992849 1.192671 0.768478 1.558794 1.551116 1.058398 0.189209 0.354583 -0.799449 -0.147157 -2.378070 -0.460802 -0.306914 -0.867978 0.971266 0.547166 1.147270 -0.669650 -0.771417 -0.266436 0.044923 -0.701155 -2.839651 0.466226 0.049031 -0.322787 -0.557660 0.851945 2.354361 -0.874157 -0.450667
that -1.064476 1.306589 -0.816619 -1.033109 -0.316046 -0.619015 -1.088140 -1.350619 0.040942 1.046884 0.102956 1.846050 0.496373 0.406217 -1.025792 1.211848 -0.156430 0.237661 -0.002493 0.010915 1.153248 0.230703 2.004838 0.794286 0.546895 0.720880 -0.411477 0.032080 -1.172948 1.722999 0.429091 0.959121 -1.910561 1.959993 0.835578 1.196875 1.075076 -1.085277 -1.763618 -0.403489 -1.050558 -0.596161 1.116948 -0.014131 2.031133 1.434568 0.263200 -0.430167 0.150688 0.693776 0.034351 0.712662 0.367823 0.031407 2.664354 0.118983 1.448447 -0.021323 1.615114 -1.221904 -1.019693 0.061218 1.854144 0.861620 1.158863 1.452674 0.423189 -0.047523 0.413114 -0.542569 -3.259708 -0.602006 0.890996 2.239479 -1.048296 -0.927985 -0.842440 0.186605 2.330739 -1.001038 -1.029046 0.907989 -0.857819 -0.695900 0.377812 -0.301174 -0.485317 0.764403 -0.554682 -0.059568 -1.093182 0.012718 0.437349 0.946606 0.272806 0.923792 -1.348140 -1.957003 -0.689764 -0.784279 0.814748 -2.042100 0.597405 -0.152176 0.037179 -0.315211 1.614859 0.278255 0.533666 -2.963421 0.855683 -0.285408 -1.321814 -0.318155 -0.496042 1.031360 0.114219 -1.419700 1.066573 1.318355 1.561801 -0.537392 -0.692370 0.724234 -1.173896 1.065552 -0.363380 0.031570
as 1.005228 -0.517836 0.146512 0.174184 0.667326 -0.398581 -0.472428 2.086416 0.431648 1.523292 -1.924588 -1.175507 0.277054 -0.286306 -0.188607 -0.551061 -0.811177 0.907943 0.846245 1.585121 -1.090788 -0.668056 -0.748714 0.638571 -0.811375 -1.291101 0.710018 1.826199 -0.046698 0.124157 1.110541 -0.358909 0.855141 0.872489 -1.291133 1.021275 -0.095475 -0.508805 -0.537601 1.258755 -1.358130 0.228571 -0.178899 -0.250325 -0.622383 1.476322 -0.289750 0.244392 0.337616 -0.703472 -0.071460 -0.766560 -1.142049 0.602228 -0.868911 -0.376997 1.273721 -2.227690 -2.333549 0.875557 0.991124 0.846406 -0.369257 -1.132699 -2.522472 0.150656 0.271206 0.286201 0.781821 0.943665 -1.030365 -1.297642 0.994890 -0.189569 -0.299691 1.166890 2.435604 0.792865 0.987305 0.092009 1.306574 -0.179611 0.026550 -0.042090 -0.701480 -0.767736 1.707262 -0.386596 1.818335 -0.013012 -1.964538 0.704859 -1.031661 0.839880 0.367441 -0.144819 -0.611802 1.334126 1.579151 -1.770877 0.489064 0.270299 0.187386 -1.128541 -0.790842 1.182071 -1.020860 0.611744 1.765136 -0.408750 -0.077018 -0.591373 0.767436 0.100236 0.158393 -0.017287 -1.515106 0.865685 -0.431258 -1.534314 0.493615 1.267182 -0.506630 1.817097 -1.032927 -0.541801 0.180952 1.320496
her 2.173428 1.194718 0.767311 -0.555976 -0.301060 0.740973 0.097686 0.437110 1.376580 -0.577310 1.286447 -0.713396 -0.227146 -1.085166 -0.669210 0.601210 -0.479766 -0.349885 0.321080 0.849938 0.004947 0.667197 -0.569285 -2.198667 -1.525458 0.665140 1.165210 0.213359 0.386366 1.285336 -0.200033 -2.056435 -0.757409 -0.732515 -0.602802 0.352925 0.527364 1.197824 0.063540 0.283176 -2.202281 1.066885 0.808043 0.724039 0.919143 1.206291 0.179029 0.078066 -0.782494 1.861797 -0.107191 1.992009 -0.383887 -0.697485 -0.022105 0.395575 -0.059796 -1.077824 0.702775 -0.522342 0.131654 1.070581 -1.107579 -0.323680 2.100088 -0.321543 0.145310 -0.362072 0.833790 -0.559842 -1.542335 -0.213169 0.975983 1.753641 0.296690 -0.940288 0.959752 0.567264 -0.516423 -0.970957 -0.022785 -1.489401 -0.084296 -0.476624 -1.560869 -0.678344 0.923975 1.374675 0.494810 1.228307 0.622507 0.146434 0.011863 0.051915 1.765474 0.790150 -0.107436 -1.195143 -1.101063 0.066691 -0.007148 -0.439441 -1.872748 0.069139 0.621151 0.572143 0.624493 0.752518 -1.041915 1.069308 -0.626942 0.315031 -3.045027 -0.192025 -0.982168 1.609695 -0.647034 0.185665 -1.808569 -0.342762 1.236144 -0.649280 -0.201899 -1.423084 1.591795 0.258202 -0.365329 -0.642827
with -1.046502 -0.682521 0.425642 0.511154 0.412959 -0.394503 0.082698 0.548751 -1.756856 0.314163 -0.996427 -0.461233 0.353003 -0.274257 -0.555860 0.375042 0.839469 1.882321 -0.041530 -2.398599 0.975867 -1.335995 2.228912 -0.237750 -0.417305 0.659908 -0.527299 0.333274 -0.783170 0.053024 0.129682 -0.102322 -1.869663 -0.800054 -0.084516 -0.797442 -0.365861 -1.340228 -1.406586 0.717827 0.310303 0.620637 -0.220636 -0.697370 -1.190179 0.395502 0.423591 -0.788175 0.649755 0.000102 -0.943373 -2.561924 -0.903375 -1.140329 0.308772 -0.881527 -1.109746 0.296058 0.973568 -0.068659 0.464471 1.387576 -0.454529 0.569497 -0.909969 -1.315754 -0.409588 0.591811 1.105715 -0.415958 -0.121597 -2.219578 -0.281157 -1.557288 1.312385 0.512022 1.412880 -0.643880 -3.577258 0.085148 -0.592890 -0.832898 -0.351130 0.582490 -1.822154 0.278533 -1.993528 -0.794952 0.684694 0.359072 0.618056 0.319191 -0.470714 0.253264 -0.179967 1.536279 0.331362 -0.244006 -2.286210 1.381652 -0.395255 0.504950 0.826652 1.639225 -0.361223 -0.130529 -0.768206 -1.574494 -2.480533 1.437716 -1.372655 -0.178527 -0.309776 -0.135608 0.980329 0.616659 -0.173038 -0.097152 -0.367588 -0.792103 -0.804564 -0.180125 -0.321228 0.025083 -3.340840 0.996222 -0.653572 1.672202
at 2.005956 0.342808 -0.680118 -0.380543 -1.262654 0.099979 0.216760 1.608749 -1.502352 -0.957818 1.061827 -0.285007 -1.288188 0.014086 -1.713734 1.118489 -1.229680 2.480304 -0.793629 1.277849 -2.403239 0.044891 2.101098 -0.513593 -0.875754 1.406535 -0.515655 0.217429 -0.911177 -2.205570 0.750568 0.266157 -0.377214 -0.618250 0.593929 -0.594144 -0.518808 0.366288 0.126963 0.891206 0.742765 2.109338 -0.918931 -1.725841 -0.110861 -1.246005 1.987721 0.840299 0.922752 -1.045357 0.064281 -0.652647 0.212862 1.077628 0.372973 -0.380418 0.357183 1.711931 -0.170191 -0.392272 -1.377049 -1.081976 -1.623373 1.400751 0.018994 1.030727 -1.125400 1.061465 1.011750 1.153233 0.337175 0.281784 -0.776339 0.035947 -0.242850 0.304574 -0.110091 0.586626 1.804714 -0.510154 -1.465576 -1.776077 -1.410634 -0.226300 -0.408227 -1.138793 -0.138483 -2.112384 0.862492 -1.148717 0.191111 0.228990 0.396317 -1.548327 0.085164 -1.241237 1.888871 1.136009 0.468155 -0.003151 -0.620843 1.364616 -0.626935 0.756162 1.207594 -0.533362 0.089728 0.508820 -1.738032 -0.619833 1.191260 0.069690 1.268555 -0.810830 -1.010034 0.134595 1.400179 0.016832 -1.282749 0.728835 -0.553622 0.827106 -0.286477 0.308334 1.357818 1.303954 -0.651103 1.640850
on 1.716025 1.004667 0.731196 -1.657249 -1.991068 -0.900562 0.767514 -0.751005 -0.339993 1.111164 -0.532699 -0.002512 -0.423796 0.007933 1.556509 1.666210 -0.439879 0.722933 1.340524 0.439771 -0.084928 -0.043222 0.218335 0.125172 0.044034 -0.786671 0.402083 0.345203 1.534047 0.130777 1.629910 -0.051344 0.066680 -0.539433 -0.171795 0.806360 -0.453727 0.210125 0.664037 -0.120013 -0.545648 -1.516676 -0.524556 -0.418846 0.060570 -0.014205 0.281391 1.199922 -0.342590 0.065940 0.523058 -0.221447 0.920476 -1.181562 -0.911550 -0.223005 -0.298602 0.577506 0.015950 -0.065209 -2.479650 0.644631 -1.398154 -0.880501 1.970512 -0.229745 0.212974 0.049690 0.714029 1.059258 0.520934 -0.491171 -0.321134 0.054625 0.805768 1.233338 -2.730758 -2.650266 -0.282880 0.364118 -0.403049 -0.308801 -2.351782 -0.062806 1.371454 0.567852 0.853026 -1.077041 0.835514 1.095061 0.263128 -0.331410 -0.957409 0.082420 -0.674380 1.980875 0.785362 -0.639694 1.397631 0.155137 0.579625 0.614567 -1.807954 0.034079 1.036493 -0.312480 -0.123468 0.016634 -0.244813 -0.509593 -0.315347 1.411595 -1.609100 1.486302 -0.530018 -0.423053 -0.007651 -0.523760 0.681833 0.057393 0.101268 -0.678151 -0.669506 -0.556551 0.609599 0.683903 -1.178261 -1.582358
all 0.611309 -0.500613 0.253134 1.176581 0.505816 -0.347613 -1.018593 -0.068847 -0.888807 0.329727 0.012264 0.330811 0.375178 0.986342 0.201215 -0.243640 0.758189 -0.189839 -0.445083 -0.658225 1.609307 0.368936 -0.263181 -0.345581 0.863405 -0.087065 0.121996 0.356147 -1.367967 1.077402 -0.090739 0.753163 0.582544 -0.245102 -0.797776 -1.274122 -0.594091 0.768664 -0.932146 0.446086 1.196249 0.397669 0.308272 1.020770 -0.106452 0.207041 0.519221 0.179581 -0.939735 -2.479958 0.336202 0.205529 -2.713368 -0.710486 1.493067 -0.547033 -1.412636 0.248145 -0.330123 -0.509180 1.007349 -1.970065 0.623769 -0.328317 -0.183134 2.000767 0.147577 -0.333205 -0.390961 -0.730372 -0.157085 0.059974 -0.633561 0.736594 0.522381 0.154975 0.039212 0.591956 -1.213733 -1.079642 0.560348 0.607173 -1.018713 0.343529 -0.667557 0.981674 -0.522810 -0.314008 -0.861197 0.960336 -0.241427 1.213989 0.490197 0.364282 0.110746 2.215328 0.138621 -3.012025 0.067335 1.561540 -1.271370 0.577904 0.169841 1.548538 -0.291257 0.557596 1.403823 -1.124678 0.359454 1.076112 -0.777830 -0.083786 -1.453410 -2.142965 -0.282759 -0.097015 -0.644528 -1.932521 -0.231082 0.026369 2.230094 0.495855 -2.461546 -0.022925 1.346076 1.299218 -0.577704 1.414733
for -1.676793 0.178522 0.577310 -0.678467 0.528030 1.355210 -0.109760 0.602297 -0.871576 -0.201524 0.109520 1.254501 -1.075753 1.109172 -1.578184 -1.060014 1.405595 0.611372 0.699173 0.689946 -0.397456 1.528147 -0.715300 0.976453 -0.430838 0.068668 0.088301 -1.198346 0.700361 0.223548 1.245517 -0.912288 0.348138 -0.564484 -1.603884 -0.855067 1.010373 -0.614386 0.283393 -0.994824 -1.000693 -1.551499 -0.749444 0.346924 1.352575 1.321663 -0.563603 0.170969 0.384938 1.081505 -0.146046 0.650995 -0.262366 0.158101 0.551193 -0.565084 0.546654 -0.708177 -0.403169 0.854148 1.112194 -0.174142 -0.232372 -0.179286 -0.890435 -0.441493 -1.783580 0.750342 -1.236872 0.709650 1.134423 0.038041 0.787447 0.243568 0.016669 0.572973 0.233273 0.715530 -0.973851 -1.384132 1.067927 -0.611613 0.971793 0.088590 -0.701410 0.610351 1.309208 -0.658865 0.210650 1.831906 -0.791682 -2.505829 1.158547 1.512859 -0.062830 -0.233402 0.197440 0.724962 1.005400 1.096587 0.854092 -0.587268 -0.478379 1.526979 0.322382 -0.504949 -0.719606 -0.030376 0.052869 1.320664 0.348497 0.373398 1.482604 -0.622001 0.509165 0.432824 0.296990 1.280589 0.655114 -0.432311 -0.617246 0.564436 1.044247 -1.581500 0.378979 -0.206160 -0.479754 -1.902167
this 0.762258 1.925088 0.912314 -0.851171 -0.115858 0.238133 -1.857275 -2.329792 0.181936 -0.630605 1.840656 -0.557880 0.662285 1.178007 0.988971 -0.244201 0.381252 -0.847045 -0.830892 0.145736 -0.524263 0.383856 -0.251140 0.939148 -0.229077 -0.270335 1.799920 1.132962 0.526247 2.263525 0.055038 -0.200993 -1.454357 0.324886 -1.769043 0.073865 1.049262 1.226316 1.373193 -0.086448 -0.922747 -0.848879 0.445712 -0.257966 0.552922 -1.900681 0.108284 -0.434843 -0.281267 -0.874918 -0.938791 -0.720183 -0.839673 -0.390325 -0.539556 -1.784219 -0.261836 -0.297623 0.569556 -0.765272 -0.685477 0.313975 -0.125096 -0.444894 -2.290642 0.290109 -0.517693 0.576652 0.611025 0.455120 -0.451144 0.057786 0.631680 0.060356 -0.328527 -0.558492 -1.467008 0.375701 0.627343 -0.808706 -0.306595 0.916561 1.244862 -0.632519 -0.134561 -2.591387 0.745833 -0.868732 -1.476016 -1.314193 0.959553 -0.744679 1.879327 -0.417068 1.324124 0.571270 -1.174201 0.165321 -0.540432 -0.768446 -0.648642 -0.480545 0.759470 -1.985490 -0.122457 0.628116 0.077121 1.432377 -0.408311 -1.873606 0.205840 -1.030350 -0.931095 -0.693744 1.189233 0.922942 -0.479727 -0.790112 -0.349337 0.464946 -1.426167 0.398304 0.102448 1.438880 0.078609 1.867036 0.217516 -0.800854
had 0.603806 0.008564 -0.068388 -0.815783 0.660024 -0.647633 -1.153217 -0.747358 0.539875 -1.258413 0.371312 0.086700 2.060460 1.429501 -0.146232 0.384625 0.934890 -0.353077 -1.533700 -1.328329 1.415544 1.222825 -0.233316 0.783368 -0.611862 0.953801 -0.147935 -0.226802 1.990064 -0.185731 0.220209 0.820392 -0.373328 0.663038 0.005929 -0.705670 2.052988 -0.240725 0.371995 -1.444577 0.416581 -0.054744 0.189722 1.951584 1.291206 0.355316 -0.594902 0.791273 0.206332 1.724573 0.358172 -1.216304 -1.063889 0.714728 -2.170753 0.502920 0.202857 0.139461 -0.608873 0.781727 -2.778306 1.453425 -0.514750 -0.121942 1.203219 1.393031 0.117634 -1.244531 -0.992052 0.298438 -0.112126 -0.958621 0.156624 -1.777564 0.577959 0.209788 0.033513 0.036155 0.741254 -0.530053 -0.598129 -1.421871 -0.701655 -0.952063 1.131904 1.290257 0.237695 -0.171304 0.724482 -1.070042 -1.251262 -1.194554 -1.328152 -0.300143 0.261518 1.581611 -1.190873 -1.072405 -0.285992 -0.070468 0.781362 1.001262 -1.648828 -0.528092 -1.038913 -0.439623 1.348021 -0.325591 -0.304915 -0.592774 1.432446 0.076313 1.017068 -1.004560 0.592958 -0.155425 -1.748070 1.729265 -0.781664 -1.754426 0.519807 1.462816 -0.413940 1.390921 -0.205303 -0.301430 -0.314684 0.033640
but 0.842181 0.022015 0.111411 1.393478 0.823623 -1.260818 0.011861 -1.076007 1.110138 0.557368 0.042081 0.851129 -0.709994 1.002782 1.134136 1.674878 -0.732207 0.738954 0.222491 -1.131568 1.065961 0.247360 1.373640 -0.844003 0.830795 0.556478 0.015727 -1.548659 0.374513 -0.490430 0.415482 0.359179 -0.181318 -0.551227 0.032882 0.677401 1.095923 1.255602 0.469486 -1.540997 0.452101 0.159091 -0.418604 -0.176717 -0.561720 0.239322 0.642350 -0.915886 0.773464 1.112697 -0.316097 0.539374 -1.560535 -0.663267 -1.669889 0.667099 -0.874991 1.740565 -1.695216 -0.015617 -2.024264 1.286176 -0.173707 -0.776789 0.618753 0.583933 -1.191696 0.756794 -0.065673 0.369207 -1.697025 0.125630 0.296417 -0.485168 0.560311 0.303745 -0.948457 0.797923 0.300804 -0.358560 0.669447 0.179855 0.737996 0.764129 -0.373856 1.985464 1.361480 0.493296 0.210614 0.461670 1.069143 -0.059784 0.908981 -0.229220 -0.064763 1.347960 -1.440806 -0.108111 2.465207 -1.817646 -0.830560 1.418149 1.023539 1.008335 0.648963 0.841133 1.351105 0.799749 1.165950 -0.919273 -0.285334 0.356467 0.464791 0.156211 0.152643 0.236763 0.363977 0.721417 -0.642722 -0.832743 0.046850 0.749747 0.014649 1.090636 1.364833 -0.814764 1.236268 0.616852
not 0.101589 -0.862568 -1.044711 -0.862666 -1.232563 -1.470356 -0.324579 -1.981057 0.477995 0.269493 -0.763863 -1.066594 2.146763 -0.541113 -1.056996 0.379141 0.889901 0.150979 -0.661959 0.007465 0.995736 0.402308 0.151826 -2.099889 0.176334 -0.264548 0.054027 0.060096 -0.209891 -0.232699 0.787944 -0.264196 0.152947 0.244350 -1.684318 -1.463727 -0.960112 0.203072 -0.656777 0.458621 0.819612 -0.103098 -0.108743 -0.902125 -2.075604 -0.632971 -0.692210 1.634846 -0.867938 0.672758 0.907342 0.039061 0.529744 0.458675 1.081889 -1.246596 2.274602 0.448928 -0.910121 0.060179 -0.626873 1.944918 -0.686476 -0.146345 0.215690 -0.149107 2.026625 -0.340709 -0.260529 0.930673 -0.453427 -1.680955 0.592785 -3.087832 -0.743560 -0.645404 0.634443 -0.162520 1.069134 -0.950262 -0.065519 1.325437 0.011396 -1.052901 -0.046120 0.228684 -0.009201 1.972997 -0.574248 0.826861 -0.140012 1.081978 0.542321 0.036504 0.859286 -0.379709 -0.420036 -0.954838 -0.881859 -0.189822 -0.618976 1.188126 1.472336 1.279388 -0.498734 1.691810 0.098822 -0.203256 0.266950 -0.909545 -0.632876 -0.463914 -2.173150 -0.080055 -0.876676 0.054288 1.845199 -0.939351 0.713290 1.285840 -1.135544 0.153435 0.269553 -1.882609 -0.330058 0.841335 -1.272235 -0.141303
be -0.886364 1.848412 -1.668711 -0.305822 -0.575407 0.689151 0.471883 0.802393 1.075701 1.187794 0.273453 -0.192579 0.322449 1.380222 0.707793 -0.457216 -1.630241 0.563725 -0.187501 -0.975607 -0.280403 0.085163 -0.380559 1.127760 1.628151 -0.532736 -0.555416 0.224792 0.628595 -0.129201 0.376294 2.002866 -1.279149 -0.779930 -1.233296 -1.260509 -0.021444 -0.241166 -0.661955 1.157233 -0.850923 0.141323 1.073400 0.647090 -0.364837 0.737365 1.143309 -0.333501 2.535976 1.978175 1.302115 -0.191450 0.768385 -0.419864 0.333042 0.807229 -0.534253 0.307128 -1.904051 0.582740 -0.561517 -0.331376 0.746953 -1.486626 -0.082986 -0.043610 0.627452 -0.771414 1.450904 -0.595572 -0.650599 1.266888 -0.644018 -0.831067 0.418722 -1.402650 0.456294 0.428600 0.165258 0.381409 -0.286493 -0.185738 0.876848 -0.554438 -0.224574 0.024103 -1.244131 -0.400893 1.747253 0.504333 -1.016497 -0.511079 1.627505 1.433080 1.041590 1.015905 -0.821338 1.221194 0.334040 -1.995388 -0.492876 -0.470762 -1.478358 -0.134600 -0.273160 2.320559 0.657909 -2.658960 -2.163267 0.481580 0.610326 -0.276070 0.205960 -0.520783 0.137877 -0.668185 1.917080 0.874325 -0.778184 0.174230 -0.018854 -1.093135 0.120064 0.602860 -1.333250 0.107115 -0.224130 0.188887
or 0.066372 -0.998879 -1.418810 0.094413 -0.709040 0.457566 0.952241 -0.222927 -0.507734 -0.008482 0.613014 0.039447 -0.064337 0.043647 0.321295 -0.756387 0.058109 0.580519 0.200128 -1.081008 -1.762849 -0.937980 -0.566844 -0.560240 0.044180 1.070168 -1.376809 -0.315585 0.710753 0.334502 1.855019 -0.416230 -0.165755 0.384565 -0.492500 -0.408855 -0.616742 -0.138643 -0.115359 -1.224630 -1.110386 -1.018909 -0.656354 0.458531 -1.132023 -1.220216 -0.328952 1.986391 -0.664121 -1.090721 2.116781 -0.630419 0.648104 -0.667145 -0.390650 0.517288 0.322301 -0.353593 -0.164456 -0.343265 -0.538519 -0.370779 0.135599 -1.446815 0.960625 -1.075819 -0.368620 0.411382 0.179721 1.517633 -1.096162 0.594082 1.092132 0.090061 -1.148249 -0.651375 1.095518 1.122919 -1.985974 2.469072 1.648666 0.643203 0.444515 0.439823 -0.068497 -0.156646 -1.220557 -0.864283 3.405524 -0.026625 -1.595225 -0.809760 0.426347 0.024666 -1.017789 0.326906 -0.897002 -0.191204 -0.114776 -0.950685 0.638052 -0.353944 -0.543136 0.879916 1.375096 0.956134 -0.984749 0.532395 -0.561522 -0.465489 0.937260 -0.013802 -0.416286 -0.000037 1.466433 -0.482856 -1.863429 1.915023 -0.681027 0.703421 -0.817965 -0.403899 -1.210312 -0.501439 -0.458612 -0.791744 -0.605078 0.474284
so 0.830362 -0.299573 -1.469208 0.188303 0.013708 -0.388197 -0.675807 1.890684 0.480461 -1.087407 -0.243198 -0.072713 0.074206 0.577815 -1.096987 0.283995 1.204846 -0.811604 0.754533 -0.639878 1.976847 -0.922303 -0.834248 -0.322656 1.395649 -0.206479 1.119449 0.084737 -0.848436 -1.124168 0.977445 0.701434 0.569555 -0.014750 -0.412007 -0.120711 -0.463051 0.697177 0.126068 -0.378520 -1.458137 0.456422 0.199695 -1.102155 1.712661 -0.091860 1.044174 0.704074 -0.474095 -0.774003 -0.004701 0.237453 0.145101 1.429347 0.750798 -0.010655 -1.141132 -0.126156 0.139951 -0.448710 0.284367 1.961784 -0.981174 -0.764638 -0.467343 -1.476650 0.643352 -0.189649 1.117190 -0.749522 -1.385875 0.443321 1.560296 0.121318 -0.520482 0.030966 -0.419413 1.536391 -1.260701 0.933814 -1.089920 0.816833 0.418608 2.356858 1.921265 -1.260171 0.386579 -1.041276 -0.536148 1.899174 -0.056995 0.021497 -0.724178 -1.640436 -0.743341 -1.617350 0.014908 0.809659 0.251226 -0.686812 -0.914961 -0.687501 -0.018165 1.665762 -0.286722 1.336154 -0.489980 -0.512088 -0.357985 -0.191524 1.039619 0.990754 -1.270840 -0.138401 0.103759 1.999977 -1.672061 -1.722179 -1.485938 0.951296 -0.540221 2.318793 0.420352 1.338690 -0.248906 -0.749668 -1.031909 1.816488
very -1.927491 -0.226919 -0.017639 -2.560408 -0.493517 -1.640142 -0.179120 1.399587 0.188603 0.681970 -0.356345 -1.727079 1.294382 1.400454 -1.220031 -2.088389 0.225965 -0.426085 0.317673 -1.262126 1.042198 0.849380 0.342193 -2.078365 0.425744 -0.395528 -1.811979 -1.526694 -0.209954 0.187052 -1.454015 0.619159 0.555280 0.745687 -0.523269 2.301031 -0.514360 0.258482 -0.485400 -1.554499 -0.524821 -1.170021 -0.837310 0.578462 -0.232673 1.267149 -0.723851 -0.731706 0.287352 -0.507389 -0.553445 -0.239398 -0.619860 -0.830150 1.627102 1.414053 0.286485 0.230046 -0.512243 0.247272 -0.587724 0.236152 0.620995 -0.831267 0.484815 0.696616 -0.754563 0.402688 1.076400 0.779193 -0.185902 -0.146099 -0.256836 0.408464 1.021174 -1.397641 -1.006118 -1.188089 0.415520 -0.417162 0.352122 -0.184591 -0.336550 0.306825 2.370525 -0.881822 -1.335365 -1.519099 -1.544328 -0.553972 0.481760 -1.202880 0.360167 -0.200660 -0.591684 1.340611 -2.577561 -0.137929 -0.246565 -1.193841 0.553864 -0.597309 -1.239256 0.891477 -0.109447 0.193497 0.585765 1.904412 0.769710 -1.187156 0.245410 2.006241 -0.352434 -0.486900 1.337711 0.553370 -2.536796 -0.214076 -0.476934 -0.242047 -0.884590 -0.875780 0.641900 0.181928 -1.375786 0.182450 2.883185 1.159611
what -0.031347 1.342837 -0.025116 0.701420 -0.001606 0.899971 -0.162717 0.168801 -0.601653 -0.839094 0.444744 -0.285073 1.697532 -1.293560 -0.859630 0.123946 -0.182518 0.693832 -0.905640 0.084367 -0.545667 -0.782739 0.265096 -0.709147 -1.396275 0.274333 -0.285706 1.201817 -0.051303 1.316731 1.934572 0.706456 -0.179483 0.542525 -0.290961 -0.843813 -0.138002 0.548096 0.702298 0.466193 -0.222455 0.592417 -0.739079 2.766121 -0.745595 -1.017234 -0.624511 -0.087810 -0.993260 -0.093551 0.883835 -0.002535 1.288091 0.030198 0.557257 -2.128035 0.109496 -0.005045 -0.204008 0.188238 0.300282 -0.313491 -0.879800 0.573712 0.463292 1.343054 -1.019815 0.197311 -0.039991 -0.800893 -1.716246 0.412200 -0.079654 -0.260457 -1.037914 0.541770 0.799151 0.869582 -0.485378 1.098410 -0.219709 0.199859 0.332712 -1.008986 -0.710634 0.918619 -0.948409 0.695351 -0.007628 -0.907800 0.429767 -1.083753 -0.168169 0.128078 -1.262541 1.169698 -0.418247 0.440203 0.166752 -1.682102 0.422837 -1.151292 0.618008 -1.652960 0.867504 0.649302 0.185701 -0.798234 1.731582 0.557823 0.055259 1.785127 -0.244975 0.466716 0.336229 -0.597593 1.301934 -0.255785 0.536165 2.588562 -0.068058 0.301545 0.283402 -0.211791 1.727464 -0.882307 0.267349 0.882120
they -1.139592 -0.908433 -1.106885 0.218400 -0.465138 -1.327853 -0.318841 0.704741 1.323192 0.712535 0.963316 0.919651 -0.327937 -1.344287 0.986705 1.910636 0.542404 0.934053 0.027545 -0.286575 -1.725701 0.033695 0.063183 0.385394 -2.052397 -0.652302 1.314692 0.621307 0.956848 2.204618 -1.367491 2.368626 -1.488233 1.308056 0.819211 0.140431 0.784424 0.921555 1.000168 -0.574743 0.059274 -1.120303 0.612760 2.486193 0.036819 -1.301433 -1.629523 -0.333308 -0.841285 -0.117530 0.713802 0.717041 1.022901 -0.300273 -0.460546 0.575616 -1.034815 0.152129 1.443303 0.293527 -1.369984 0.550436 -0.372636 -1.865106 0.017023 -0.690248 0.642204 -0.525603 -1.086301 1.089330 1.402003 -0.124549 -0.971825 0.373376 0.296367 1.135183 -0.055439 -0.460945 -0.123190 0.301466 0.330175 -2.030816 -0.705615 0.678361 0.132057 1.173089 -0.874271 -1.048165 0.487519 -0.538180 2.052291 -1.630497 0.244652 -0.615517 -1.065192 -0.999682 0.013836 1.127861 -0.469065 0.105299 0.290522 -0.983180 1.533649 1.349696 0.798500 0.016006 1.318514 0.495566 -1.261353 -1.404228 0.231906 1.789312 0.127994 -0.987919 0.755396 -1.107931 -0.730705 1.563635 1.177678 0.145364 0.293601 -1.097181 1.181258 -0.562107 -0.594826 1.753617 -1.706054 0.278446
little -0.443357 -0.605316 -0.006228 -0.821635 -0.541160 1.583123 -0.121562 -0.906207 -0.468593 -0.845005 -0.802971 0.938515 -0.353017 0.930367 0.201764 -0.099651 -0.196088 -0.483356 1.310050 0.266283 1.654772 0.709131 0.829256 -0.871763 0.250604 -0.523090 -0.537818 -0.237571 -1.127235 0.314463 -0.173325 -1.554795 -0.573227 0.871338 0.685400 -0.432171 0.576728 -0.288335 0.081053 -0.190804 1.353241 0.401392 0.073474 -0.334352 1.090279 0.400105 0.181994 1.971764 0.921508 0.634756 0.464179 1.183991 -0.567563 0.475572 0.911270 0.906112 1.457515 -4.184004 1.629930 0.338814 -1.118846 -0.089893 -0.192699 1.489543 0.307363 1.439189 0.420135 -1.282776 1.227240 0.440362 -2.129764 -0.218900 -0.261633 -1.233182 -0.025140 -1.399766 -3.436183 1.083015 -1.012588 -0.384263 0.757666 0.554874 -0.369244 1.122713 0.422700 -1.372663 -0.207130 -1.301270 -1.036873 1.395478 1.485418 1.881789 -0.194188 0.491947 0.503849 0.448547 0.038371 0.719327 0.365882 0.596538 0.128712 1.357617 1.146782 -0.771050 1.192818 -0.044801 0.890427 0.260227 -2.602690 -1.725129 -1.279511 -0.567852 -1.099143 0.073392 -0.843102 -0.966703 0.106955 -0.740551 -0.379767 0.714864 -0.126745 0.007691 0.545522 -1.328663 -0.816906 -0.474211 -1.657663 -0.562486
he 1.045113 1.634236 -1.048648 -0.501874 1.696504 1.481070 -0.176392 0.563679 -1.346637 -0.218382 2.974433 -1.320529 -1.079639 1.009830 0.384900 -0.236810 -0.662287 -1.337032 -0.763466 -0.377490 -1.497753 -0.089069 -0.287923 0.605666 -0.793486 -0.637156 1.267246 -1.317843 2.121001 -2.350816 -0.303744 -1.275176 1.109628 0.953898 -1.865853 -1.532056 1.111162 -0.199029 1.257696 -1.088815 0.036925 0.060851 -0.926167 1.030298 -1.013982 -0.044555 0.929829 0.611622 -0.858696 -0.990498 -2.216256 1.104757 -1.189658 -0.806375 0.502771 -1.131167 1.489257 0.970210 -1.000183 -1.700464 0.854617 -2.395578 -0.432423 -0.527642 0.284488 -0.524893 0.708314 1.160139 -0.153472 1.012461 0.225543 0.485930 -1.031443 0.086424 0.017788 0.320033 1.344054 0.324593 -0.225924 -0.467559 -1.077279 -0.295397 0.084957 0.287801 -1.102375 -0.876988 0.226407 0.220566 0.138877 -1.870636 -1.331250 -0.804472 -0.223415 -0.148684 -0.880695 1.804981 0.369814 0.111149 -0.979145 -0.970749 -0.078398 -1.534377 0.273060 -0.844042 1.128545 -1.423337 -0.540402 -0.337915 -1.657150 0.351663 -0.484804 0.493160 -0.850226 1.522546 -2.081750 0.922416 -0.081182 -0.092431 0.590548 0.176151 -1.508169 0.474836 1.107394 -0.511668 1.291711 -0.112294 -2.150567 -1.232508
is 0.322327 0.694465 0.331290 0.017544 -0.383900 0.359397 0.258107 1.932788 2.556126 -0.304870 0.461087 -1.436221 0.978801 -0.432237 -0.030730 -1.019341 -0.598011 -0.944365 0.299719 -0.768868 -1.340527 0.878752 0.490686 1.552718 0.455535 -0.066604 0.558932 -0.699169 -0.558646 -1.713142 -0.604106 -1.018605 -0.515845 0.015606 -1.336850 2.029996 -0.405811 1.370421 -0.712618 0.783354 1.693237 -1.159469 1.191142 0.082048 1.922877 1.242619 -0.560001 -0.925901 -0.538845 0.779293 0.305524 -0.447902 0.107581 -0.063547 0.040369 -1.628567 -0.999945 0.313557 -0.866272 0.097879 1.601452 -1.777370 0.558312 -1.121288 2.606086 1.395617 -1.116007 0.332363 -0.665897 -1.357000 0.402345 -1.858953 -1.028363 -1.034917 -1.487956 0.636704 -0.154460 -0.583121 1.117815 0.753612 0.393994 -0.393163 0.896178 0.117116 -1.650875 -0.569333 0.612072 0.537811 1.228356 -0.407947 0.906691 -0.297963 -0.365965 -0.459873 -1.390496 -0.916978 1.402951 -1.677635 0.054408 0.613389 -0.303466 0.096043 0.539210 1.998241 -1.635064 0.875779 1.050915 -0.996611 -0.240419 1.373400 1.067095 0.083364 -1.299433 1.404494 -1.107991 -1.376550 -0.601213 -0.105930 -0.151196 1.442090 0.954112 0.592320 -0.905536 -0.978921 -0.335915 -2.767555 1.656244 -0.295011
if 1.189126 -0.127565 0.300899 1.269624 0.764152 -0.794823 0.579030 -0.937716 0.183238 0.272429 0.739521 -0.578723 1.782679 0.215853 -0.547618 0.652233 -0.637612 -0.237697 0.122645 -0.405175 -0.398703 0.617528 -0.485768 -0.071848 -2.116932 0.704649 1.097768 -1.149955 -0.404763 1.674046 -1.046094 -0.029901 0.831299 -1.447032 0.128765 -0.205057 0.661383 0.654206 0.052119 2.037389 0.362527 1.229406 -1.196349 1.591467 0.749974 -1.335565 -1.392380 -0.497487 -1.481466 0.949340 -0.458368 -0.487984 1.441837 -0.944185 -1.514334 -1.848973 -0.414328 -0.100725 -0.165968 -0.389569 -0.094169 0.381872 -2.209939 0.358144 2.482835 1.363075 -0.590144 0.309472 -1.270550 0.349107 1.575569 -1.554023 0.684238 0.829260 0.683123 0.147344 -0.198704 -1.122112 -0.183723 0.260053 -0.320643 0.653231 0.547533 -1.243020 0.123886 0.527379 1.703448 0.562593 0.381231 -1.807016 0.215526 1.500130 0.874143 0.572809 0.690121 1.320823 -1.344986 -0.622922 -0.371330 -0.903822 1.012314 -1.587448 0.751762 0.489240 0.648247 0.360297 2.438265 -0.460111 0.947796 -1.221998 1.157906 -0.385956 0.781528 0.091308 -0.195097 0.099472 -0.585765 -0.418734 -0.121659 -0.768343 0.743939 0.330922 0.470601 0.325536 -1.103797 -1.150493 0.745046 -0.061987
out -0.904720 -0.864023 -0.602862 0.909094 1.805274 -1.046009 -1.157183 -0.520917 -0.188430 -0.370171 -0.899822 -0.327637 1.297562 -0.638757 -1.224098 -2.134091 0.862203 2.205200 -0.415354 -0.296296 0.565987 -1.598695 -1.241581 0.994536 -0.905496 -0.245148 -2.366252 -0.113921 -0.196693 0.511049 0.852179 1.419741 1.675027 0.522337 0.316437 -2.905504 -0.036247 1.003871 -0.054507 -1.524235 -1.914535 -0.446124 -0.990055 0.004963 0.344024 -1.326342 -1.166677 -0.060158 1.020932 0.802796 0.233941 -0.357252 -0.333877 -1.245496 -0.568667 0.879452 0.825588 -1.250759 -0.508713 0.339060 -0.209980 0.298280 0.393907 -0.870125 1.373678 0.732743 -0.277583 0.365001 -1.787601 -0.182904 1.595438 0.681795 2.038303 1.850653 0.348728 -1.967245 0.244246 0.992541 -0.357673 -1.075553 1.154056 0.308455 1.347100 -0.981207 0.605670 -0.779613 0.862437 -0.971505 -0.951055 -0.061397 -0.780090 2.830820 0.720310 -0.097965 0.800908 0.179390 0.610029 0.237147 1.961503 1.764676 -2.805074 1.797464 -0.198576 -0.420328 -0.433343 -1.600169 1.556023 0.085601 -0.175649 -0.207753 0.013765 1.282734 -0.423586 1.234921 1.240739 0.537552 -1.730662 1.579028 0.430475 1.420298 0.288349 -0.676488 1.794282 -0.621401 -1.760819 -0.860290 2.911165 1.023758
its -0.124606 -0.238290 0.322962 0.085655 0.633468 0.805410 -0.372301 0.011166 1.034456 -1.066821 -0.475409 -0.074313 0.300612 -2.583078 2.858759 0.197218 -1.842485 -0.756002 -2.154290 1.036907 1.102458 0.735459 -0.332289 1.928217 1.450503 -1.428929 1.504687 0.567601 0.760261 -0.011059 0.945781 2.651358 -0.121569 -1.595483 -1.232093 -1.246112 -0.426636 -0.319082 0.105109 -0.912279 0.433242 1.305727 -0.082803 0.133329 -0.222823 0.605193 0.428419 1.067772 1.230374 -0.414049 1.011398 -0.465431 1.021501 -0.550463 0.582332 -0.977651 0.801044 -0.312581 0.091089 -0.584595 -0.975251 0.167169 -2.059072 1.998310 0.743036 0.806571 -0.006034 0.200851 1.787435 0.208343 -1.999672 -0.879662 -0.226027 -1.173905 -0.590464 -0.830630 0.865982 1.622755 -0.033815 -0.565410 -2.630019 -1.703355 0.482496 -1.011844 -0.521235 -0.662522 -0.030080 0.430761 -1.360712 -1.618116 -0.658380 1.564535 1.442151 -0.379991 0.081561 1.506219 -0.044199 0.273350 1.097560 1.858918 0.547355 1.224341 1.166263 -1.280124 0.004331 -0.315925 0.167977 -1.076864 -0.330219 -0.564570 -1.219371 0.269891 -0.461235 -0.608734 -0.386429 0.377167 -0.065034 1.436697 1.568216 -0.263574 0.009437 -0.193163 -0.022541 -0.528149 -0.328272 1.290841 -0.268801 0.772380
down 0.820211 -3.740070 -0.550101 0.302180 -0.341407 -0.304803 1.855224 -1.648601 0.117297 1.928477 -0.342627 -0.923197 -1.206077 0.091006 -0.768604 1.317255 1.061638 0.591473 -0.138240 0.634513 -0.208291 -0.099517 1.349303 -0.530404 0.604484 -0.220707 0.677225 0.689524 0.209768 1.060822 0.194356 0.236398 -0.517200 0.521731 1.570305 -1.159315 -1.436013 -0.037166 -2.292685 -1.706201 0.606984 -0.758885 -0.317960 -0.373489 -1.711948 0.045670 0.544166 0.258777 -0.055616 1.328269 0.742275 -0.976116 -1.271688 0.227767 -1.992999 -0.526332 -0.750595 0.039936 -0.353368 -1.364369 0.319918 0.432243 -1.401333 -1.349148 0.907833 1.277799 -0.023281 -0.193909 0.202959 -1.473860 1.082750 -1.729929 -1.133616 -1.530800 0.300003 0.443784 2.856592 1.713209 -0.205134 0.110436 -0.427490 -0.849263 1.469767 -1.198732 -0.066828 -0.634948 0.089621 0.715038 0.169792 1.867338 0.476212 -0.550193 0.733927 1.884019 -0.432701 1.499156 2.627221 -0.345412 -1.709813 -1.267048 -0.344418 -0.779460 0.109096 0.571250 0.569561 2.144044 1.032976 -0.000226 0.362039 -0.603476 0.765499 0.892663 -0.235587 -2.445717 -1.248841 0.266075 -0.383739 1.099305 0.557154 0.805128 0.486117 -0.765467 1.274767 0.224363 0.116482 -0.316029 -0.465948 1.251416
about -0.356508 0.954803 0.834420 0.934332 1.855372 -0.100444 -0.385131 1.096400 -1.401369 2.129441 -0.901259 -0.573040 -1.344777 1.185411 0.951390 -2.304922 -1.768983 0.344894 0.813650 -0.742624 -1.354687 -0.274956 -0.489817 0.173373 -0.997013 -0.262534 2.074878 1.488196 0.512907 -0.895414 -0.949002 -1.799491 0.227195 0.912688 -0.884598 0.570958 -0.521225 -1.888848 -0.834452 -1.692903 -0.672917 0.475707 1.260907 -0.572991 1.903605 -0.508775 1.518299 0.212013 -0.709629 -0.937224 -0.804141 0.669677 -0.803871 -0.915615 -0.485523 -0.715216 -0.751748 -0.054432 -1.063182 -2.439321 -0.882416 0.207214 -2.133767 -0.350585 0.977657 1.163637 0.037578 0.611752 0.384210 -0.720595 -2.895680 -0.215793 0.335760 -0.719858 0.751229 -1.095342 -0.553818 1.436687 -0.230951 0.880827 -1.089165 0.491450 0.371432 -0.354058 -1.058874 -0.073891 0.901536 0.153490 -1.953861 0.245372 -1.218380 0.607098 -1.834637 -1.646384 2.136289 -0.779250 -0.699876 1.536251 -0.155064 -0.584308 -0.485594 -2.252653 -0.794275 0.078255 0.459028 0.018844 0.880108 1.065442 -1.168262 0.522337 -1.195049 1.327512 0.002311 0.272303 0.091461 -1.333725 2.197317 -0.015378 1.372830 -1.937366 0.067976 -1.491520 -1.711734 -1.053910 0.302395 -0.156848 -0.455475 0.890503
up 0.572823 -1.363347 -0.435938 0.243863 -1.463795 -1.127535 0.767359 0.079468 1.440624 -1.548622 0.284359 0.106469 0.481530 0.180682 0.163610 -0.245869 -1.026315 -0.648746 0.194831 -0.025884 -0.090423 -0.072618 -0.586916 -0.759752 3.802609 -1.854327 -0.256396 0.653261 -0.472463 -2.252912 -0.515724 1.882113 -0.088214 -1.307755 -0.311615 -0.659050 0.538801 -1.393486 -1.640901 0.134698 0.486827 0.379354 0.019161 0.618065 1.203688 1.167494 1.257563 0.387271 1.439827 -0.463449 0.381595 1.246768 0.762694 1.769456 0.170670 0.188813 -0.309408 -0.299273 -0.051017 -0.481462 -0.018030 -1.581945 -0.591334 0.558625 -0.140342 -0.246777 1.028798 1.271523 1.124851 0.256097 1.164274 0.642814 -0.932337 1.061869 -0.570894 1.677519 -0.918079 -0.084714 0.783171 1.044496 0.276733 0.416964 -0.741220 0.668328 0.333629 1.039113 -0.476923 -1.769033 -1.858019 0.201581 -0.846366 -0.182430 -1.662723 2.495939 -2.130006 -1.491085 -0.315108 -0.053995 0.558210 0.479691 0.898204 1.128285 0.557535 -0.895124 0.563510 -0.352535 0.426252 -0.072043 -0.065477 -0.557877 -0.507111 0.333876 0.401764 1.646129 -0.196089 -0.208932 -0.878606 -0.683654 0.524161 -0.092233 0.636909 2.083295 0.018352 0.009495 2.007128 -0.512909 -1.811656 0.685532
one 1.737845 0.083737 0.705147 0.894081 0.351553 2.846529 -0.440259 1.338894 0.279658 -0.860600 -1.262516 0.139795 0.637667 0.345770 -0.429292 0.377831 1.553391 1.770563 -0.964981 0.525023 -0.138962 1.388079 -0.956057 1.668970 -0.018321 2.061222 0.477124 1.568004 -0.445110 -0.463982 0.493235 -0.569207 -1.898302 0.537775 1.678686 0.551817 -0.136183 0.193992 0.633030 0.327493 -0.334266 0.920583 -0.381307 2.178869 1.230839 -0.357990 1.272534 -0.022395 -0.269211 -1.060854 0.668608 0.950641 1.140393 0.228860 -1.099239 -0.246136 -1.288387 1.322184 0.059548 -0.641799 -1.147873 1.651710 -0.165953 -2.348327 -2.048680 0.627322 -0.555672 0.150641 1.063627 -0.998897 -0.867800 -1.228420 0.163652 -0.577143 1.500095 0.679814 -0.656956 -0.079231 1.041835 -1.238773 -1.390521 -1.046303 -0.556515 -0.664103 -0.741045 -1.276510 -0.264366 1.041143 0.004589 0.002260 -0.491980 -0.352361 -0.705129 0.011136 0.100125 1.812512 1.353863 2.389094 1.737442 -0.153454 -1.851362 0.197519 -0.310449 -2.135948 -0.910043 -0.864274 0.689123 0.203961 -0.453853 1.466126 0.035545 1.468671 1.370347 -0.573630 -1.065338 1.924810 -0.936251 1.371002 -0.107166 -0.639565 -0.521535 -0.209397 0.244624 1.143007 1.632081 0.174362 -0.722678 -0.229023
do -0.979579 -1.467406 0.475364 -1.317730 -2.003624 0.082946 -0.503698 2.260021 0.257824 -0.124208 -1.238663 -0.378543 0.496923 -0.709647 -0.982427 0.202277 1.038922 -0.960307 0.115913 -1.086402 0.894985 0.301435 1.418745 1.696717 1.133819 0.341970 -1.324667 -0.583190 -1.660800 -0.210940 -0.667138 -0.073604 0.979483 0.988920 0.475850 -0.424130 -0.984954 0.692615 0.429647 -0.265101 -2.649421 -0.375554 -0.875979 -0.341926 0.142031 1.255455 -1.629637 1.212077 -0.551571 0.940246 2.319985 -0.433065 1.320781 1.638996 -0.140969 0.310562 -1.020056 -1.869784 2.412042 0.994710 -1.455033 -1.416056 0.623391 -1.011145 0.082279 0.666215 1.269291 1.301723 -0.536804 -0.590999 -0.603925 0.359828 -1.249517 0.455901 0.996413 -1.635787 -0.039397 -0.118853 1.953603 -1.165562 1.000740 0.027715 1.486404 -0.379346 -0.487301 0.152807 0.400822 0.293186 0.964659 -0.174018 0.756328 1.225302 -0.694977 1.978951 -1.475988 -1.540323 -0.751505 -1.906392 -0.954134 -0.383972 1.868835 -0.484823 0.670554 -0.824963 -1.103426 0.565164 0.630226 -0.829083 0.342719 1.071384 0.092329 -0.122268 -0.758374 -0.065513 1.253265 -1.291183 0.232447 -0.999035 0.834945 1.312650 1.223435 -1.325785 -0.178994 -0.597088 1.314649 0.958789 0.260392 1.926599
no -1.244128 -1.396602 0.644597 1.129772 0.035215 0.632479 -0.041629 0.294160 0.235932 -1.768789 -0.810411 0.055196 -1.240024 0.376832 -0.771797 0.419538 0.608351 0.422829 1.018267 0.303302 0.640756 1.094671 0.151373 -1.762384 -0.160558 0.049224 2.024103 -0.292082 1.806926 -2.032878 0.601109 0.930313 0.156303 1.265703 0.196624 0.542325 1.133707 0.477950 -1.108396 -0.753155 -0.608479 -0.336697 -0.629475 0.450517 0.713388 1.043664 -0.181903 0.157796 0.838867 -1.368427 1.756060 1.174369 0.847106 -0.899609 0.545779 -0.535827 0.993576 0.551059 0.389448 -1.173954 -1.123437 -0.170799 0.956918 0.733003 -0.608967 -1.965359 -2.223969 0.710701 1.488688 0.582283 -0.146896 -0.327293 1.254537 -0.860141 -0.085755 -1.275976 -0.605750 0.771600 -0.580042 0.677099 0.849455 -0.236196 0.058359 0.809760 0.519013 0.751729 1.516043 0.442330 1.411802 0.044047 -0.920984 1.541176 -0.849583 0.075766 -1.322040 0.462273 0.532165 0.104952 -0.402979 -2.845078 1.073128 0.138046 -0.335128 0.926990 -1.101767 -0.589184 -0.056106 -1.228334 1.144306 -0.384350 0.117505 0.650295 0.518776 -0.959294 -0.637774 -0.847336 -2.394677 -1.013405 -0.401946 1.507300 -0.118999 -0.302296 0.050333 -0.330943 1.757727 -0.668651 -0.597974 -1.462576
his -1.041524 -0.938632 -0.010575 0.718249 -0.839246 -1.105517 -1.224097 0.957574 1.254440 -0.970919 1.113958 -1.937846 1.312465 -0.962452 -1.482410 0.965278 -0.191368 -0.711560 -0.029122 0.590917 0.927451 1.398676 -1.231781 0.081135 -0.368311 1.790233 -0.109640 -0.660944 -1.489505 0.038031 2.492892 -0.111654 -0.181215 -0.328838 -1.809939 0.644388 0.730807 -0.875144 0.158085 0.151354 1.513590 0.297144 -0.137167 -1.829519 -0.246494 -0.313302 -0.525480 -0.485924 -0.157551 -0.195506 -1.530015 -1.128869 -0.163744 0.312738 -0.483726 -1.288698 1.340544 -0.756780 0.269388 0.671519 -0.437097 -0.861025 -0.700572 -0.766800 -0.975209 -0.554114 1.272610 -0.996993 0.019064 -1.602809 -0.039642 0.210081 0.562180 -0.866369 -1.052454 -0.143361 2.055078 0.902207 0.178304 -1.325703 -1.215790 0.687948 -0.408377 -1.063938 -1.827038 1.073378 -1.463993 -0.305406 -1.208407 -0.989374 -0.079816 0.511383 -2.327724 0.373776 0.004733 0.409676 -0.032702 -0.867448 0.442207 0.165004 0.083683 1.482980 1.352298 -0.108429 2.731004 0.576358 -2.064280 -0.899040 0.769573 0.474123 -0.544744 0.251913 0.925821 -0.003831 1.084066 -0.491850 1.939360 0.639556 -0.362736 0.710306 -1.326559 0.367081 0.081091 1.311945 -0.811227 0.104197 -0.404401 -0.415571
then 0.796555 1.540775 0.562412 1.661668 -0.312619 1.562539 -0.839893 -0.519454 -1.620779 -1.905708 -0.725730 0.947310 -0.241453 0.616316 -1.354607 1.704526 -0.505687 0.463218 1.209964 -0.645198 0.290782 -2.318096 -0.418716 -2.410110 -0.600659 -1.073609 0.463171 -0.006189 -0.051559 0.123993 1.339077 -1.522883 0.278461 -0.612293 0.016614 -1.199616 0.405532 -1.695687 0.748087 0.055518 0.479595 -0.133653 -0.707983 0.656792 0.049363 0.022845 -0.176439 0.383718 -0.348838 0.273013 0.453911 -0.034470 -0.909971 0.571346 0.815998 -1.422530 -1.258157 -1.398018 -0.499419 0.512571 -1.368895 -0.480422 0.942304 -1.827062 0.664040 -0.073701 0.099915 0.827110 -0.574224 1.096664 0.794634 0.731350 0.571709 -0.390471 0.433614 -1.005369 0.060656 1.321157 -0.735654 -0.669478 0.347280 -0.686694 -0.811351 -0.449861 1.077688 0.505116 1.402096 0.313011 0.118713 -0.056808 0.045846 -0.360105 0.666247 -0.184412 0.954584 -0.295308 -0.314467 -1.052459 -0.042807 -0.708974 0.421041 0.639574 -0.381315 0.359259 2.473053 -0.939042 -1.377900 -0.109404 1.395973 2.117061 -0.060454 2.264786 -0.154711 0.231317 0.579955 -0.137255 -0.516129 1.495569 1.742177 -1.387764 -0.479865 -0.082385 3.070619 -0.267413 -0.254758 0.451359 -0.651191 -2.431409
project -1.653226 -1.462319 0.710462 0.546475 -1.754511 -1.235315 -0.747161 -0.100704 0.185370 -0.916697 -1.284148 -0.500038 0.435222 -0.126574 -0.158242 -1.749328 0.060571 1.827001 0.565785 -0.758679 -0.818501 1.765315 -1.062379 -0.316445 -1.527080 -0.197875 -0.733857 -0.209486 0.546164 -0.120923 -1.893968 0.758720 -0.015137 0.114341 0.210741 1.036106 -0.759723 0.569398 0.707649 0.398441 1.373390 0.696548 -0.693099 -2.020962 1.528129 0.066478 -0.752074 1.016404 0.948174 -0.500221 -0.830271 0.092754 1.385377 -0.304231 -1.643724 -0.293453 0.587442 -0.557564 0.172732 -1.872428 -1.682159 0.710619 -1.200219 -0.600797 0.573752 -0.286924 1.250757 0.135827 -1.000590 0.563232 -0.044290 0.198089 1.065241 1.008649 -0.683417 0.384355 0.491158 -0.327702 -0.234214 -2.218988 1.107131 1.010774 2.080017 -0.322557 -0.905370 -0.183227 -0.810666 0.374557 0.967082 0.416700 0.118471 -2.244464 -0.614153 -0.880635 0.132659 1.213967 -1.268198 0.317968 -0.148035 -1.525103 0.514508 0.629358 -0.082949 1.117075 -0.193542 1.030992 -0.917343 1.010663 0.680271 -1.111198 0.761987 -0.288620 0.580182 0.832953 -0.270634 0.820338 1.551105 0.941194 -0.689666 -1.316400 0.817570 -2.283776 0.511905 -0.405853 -2.211672 -0.472326 0.441735 0.748592
were -0.071359 -1.614787 0.037427 -0.473060 -2.015920 0.639351 1.736526 -0.680915 -1.100505 -0.332232 -0.032722 -1.657389 0.870316 -0.495944 1.001801 1.906333 0.108192 1.793996 -1.118572 0.447636 -0.146552 -0.158958 -0.660971 0.099274 0.246520 0.111825 1.528796 -2.761214 -0.006782 1.423264 0.353566 0.757532 0.684256 -1.632182 -0.417203 1.402095 0.155416 -0.002635 0.698275 0.670068 -0.486801 -1.564428 0.281349 0.647004 0.314384 -1.182144 -1.310053 -0.909438 -0.959156 0.468069 -2.230281 -0.392203 -1.257445 -0.579360 -0.047695 -0.463652 -0.163503 0.325077 0.931251 -0.096890 0.865015 -1.582056 -1.546007 2.192818 0.860833 0.429347 0.679154 0.163145 -0.346985 -0.746222 0.220567 -0.443817 -0.463683 -0.814238 0.490559 0.346832 -0.802389 -0.766443 0.387036 0.178651 0.021837 -1.028392 -0.108945 0.150071 -1.087133 -0.078785 -2.041699 0.800574 -0.523807 -0.502813 0.572831 -1.040024 0.315804 0.666846 0.860470 0.632283 -0.398291 1.296044 -1.035394 -0.600359 0.220281 0.563834 0.443860 1.145283 0.950758 -0.524889 1.615097 0.522873 0.111343 -0.473821 -0.634164 0.354012 -0.585954 1.315315 -1.050204 -0.522754 -1.190680 -1.215749 -0.471142 -0.165714 -0.955235 0.939604 -1.290659 0.484651 -0.131444 -0.485065 0.146093 0.184057
know 0.159741 -0.756036 0.189528 0.595708 -0.985335 0.984164 -0.308308 -0.564269 -1.043446 0.623797 1.254814 -2.505852 -1.772622 0.310982 -1.876813 1.537986 -0.620832 1.339008 0.910495 -0.745511 -0.437502 -0.534727 0.987871 -2.041466 -0.862709 -0.161911 -1.367192 1.200840 0.543518 0.775005 -0.479257 -0.372148 2.207321 1.319912 0.127301 0.148926 -0.723480 -1.506685 -0.367889 -0.626661 -1.358913 0.974287 -1.770848 -1.609307 0.297154 0.112429 -0.705326 0.312382 0.309986 1.349743 -1.243260 -0.895667 1.393914 0.706951 -0.258805 0.517294 -0.016873 1.270991 -0.609130 1.290988 -1.036297 -1.807699 1.383412 -0.262808 1.753089 -0.213048 0.166298 -0.889959 0.636423 3.052448 -2.932702 -0.774970 0.608308 -0.008700 -1.744706 -0.520867 0.062767 -0.533179 -0.864382 0.921176 0.382714 -0.539627 1.505343 0.940445 1.594778 -0.088792 -0.216923 -0.434211 -0.070835 -1.615035 0.514851 1.536900 -1.012589 1.429843 -0.421611 0.369737 -0.653525 0.209165 -0.813289 0.567463 -1.646103 0.183170 0.115456 -0.130420 -1.408528 0.968656 1.178355 -0.371382 1.044139 -0.775278 -0.029706 -1.388967 0.701107 0.513545 0.259582 0.635097 0.818028 -0.972720 -1.008890 0.144808 -1.667625 -0.160090 -0.600755 -0.794073 -0.516288 0.576957 1.524666 0.096296
like -1.383301 1.255434 1.121168 -0.471652 -0.104137 -0.632164 -0.076614 0.526762 -1.418612 0.550334 -0.378981 -0.538200 1.291424 -0.074095 0.136701 -0.713988 -0.181183 2.140691 0.639746 2.273137 0.613764 -0.413062 0.781030 1.067269 0.467901 0.660651 0.340845 -0.575404 0.109781 -0.240279 0.297106 -0.306434 -0.577118 -0.222477 -1.433502 0.214013 0.661082 -0.829908 -0.398658 -0.958183 -0.247239 2.494750 1.506528 -0.262243 0.439561 -0.131706 -1.677815 0.359670 -0.350479 0.766968 0.469310 1.741901 1.194994 0.653018 0.200930 0.038562 1.461484 -0.177637 -0.575583 -0.924528 0.158869 -1.504581 0.563809 -0.063053 0.585491 -1.673746 -0.359806 -0.072387 -0.371500 -1.180846 0.277917 0.989084 -0.806155 1.856211 -0.565844 -0.613806 -0.734657 0.227480 1.028500 -1.694625 0.393683 -0.434767 -0.516563 0.782958 0.377930 -0.351020 1.197957 -1.144830 2.589585 -0.606155 -2.172367 -0.787443 -1.264780 0.961347 0.002119 -0.587572 -0.942258 -1.431826 2.425367 0.469095 0.152897 1.130989 -1.079317 0.021511 0.444182 -1.799828 0.206709 -2.002346 -2.507089 0.758022 -0.689203 -0.510592 0.839359 -0.285805 -0.281403 1.828816 0.460310 -0.759173 -1.327281 -0.697999 -2.407450 -1.403520 0.787643 0.456176 0.261701 -0.175181 -0.348098 -0.330475
by -0.302758 0.021163 0.442034 0.636183 -0.406406 0.265749 0.559703 0.350201 0.250779 1.558189 0.139531 1.179325 -0.929654 -0.679518 0.637636 0.899704 -0.622203 -0.785540 -0.134219 -1.483611 1.651618 1.000795 -0.562987 0.351171 -0.626655 -0.454509 1.201786 0.029370 -0.950331 -0.326119 0.246930 -0.500464 1.147074 0.341913 1.245540 -0.393757 -1.287063 -0.476049 0.069418 0.464135 -0.157040 0.442365 0.496756 -1.089914 -0.164904 0.370563 -1.198294 -0.390288 -2.002940 0.407010 1.125135 -1.742112 -0.856611 0.983449 -0.169868 -0.531721 -1.172381 1.060011 -0.182487 0.527480 -3.259921 -0.300560 -1.001658 0.988280 2.072298 -0.706512 0.595829 -1.599005 0.336989 1.619837 0.406172 0.480390 0.887507 1.214594 -0.604557 -1.613984 0.019397 0.450910 0.396671 -2.084074 -0.031846 -0.221134 -0.625123 1.102270 1.581040 -0.410098 0.859743 -0.297098 0.442368 1.118744 0.293981 -1.786124 0.865519 -0.760032 0.031061 0.663462 0.175172 -1.540900 0.188664 -0.436807 -0.272779 0.123850 -0.047887 0.682433 -0.750246 0.720896 -1.468830 0.802950 -0.289539 0.643870 0.069660 -0.995341 1.884359 -0.518568 -0.915927 1.061046 -0.135453 0.478903 -0.656365 0.291062 1.260141 -1.353982 -0.507008 0.100116 0.373176 -0.957985 0.588629 -1.667325
them -2.194321 -0.392110 1.445174 -1.440301 -0.622254 0.253930 -1.225079 0.939864 0.841397 0.447684 0.358938 -1.112594 -0.453343 -0.595592 1.061565 -0.221431 -0.335683 0.928637 1.749334 -0.821836 0.198155 0.739391 1.066523 -1.913835 0.349870 -1.209317 1.868527 -1.367706 1.299724 0.580293 -0.384612 1.951721 -0.173532 1.077655 1.958272 0.442598 -0.746199 0.928777 1.235088 0.053055 -1.032234 0.356575 -0.150203 -0.513409 -0.453044 -0.770313 0.231035 -0.471605 -0.013540 -1.105179 0.627841 -1.542266 -1.245462 -0.451574 0.396958 -1.516929 0.361489 -2.036241 -0.511964 0.931888 0.194504 -0.554276 -0.792325 -1.850881 0.621859 0.433552 0.215575 -0.096622 0.605491 0.670442 1.369185 0.683154 -1.060158 0.278945 -0.474115 0.930250 -0.105361 0.738818 1.136028 -0.350958 0.091897 -0.339123 -0.025004 -2.559782 -1.423441 0.051629 0.001491 -0.954061 1.639939 -0.130249 0.476478 1.484328 -0.840597 -0.016719 0.929473 -0.508401 0.060474 0.580947 -1.270036 0.814839 0.143245 -0.799306 0.097965 -0.890828 0.267253 -0.807410 -0.201616 0.238645 1.216112 -1.729179 -1.877971 0.071264 0.100008 -0.668099 -0.791966 -1.994285 -2.660107 -1.392036 0.376728 0.527993 1.765496 2.418814 -0.968681 -0.284421 0.171494 -1.818947 3.249130 -0.004742
have -0.129594 -0.516136 0.380593 0.722407 1.306393 1.343010 -1.181646 0.975450 0.203431 -1.692307 -2.012296 -1.290056 1.953873 -1.750035 0.449714 -1.287320 1.956011 -0.397549 0.239576 0.923955 -1.473940 -0.935485 -0.555411 -0.323970 1.155578 -1.080208 -0.707025 -0.464689 0.676467 -1.614230 -0.281881 0.176845 -0.493209 0.538912 0.768307 -0.117680 1.023839 -1.909209 -1.447098 0.855418 0.080333 -1.153478 0.411541 -2.160575 -1.785666 0.356319 -1.402854 0.700398 1.090503 -0.487363 0.393119 -0.036730 -1.019664 -0.990741 0.469606 0.724981 -2.069582 0.904619 0.289455 -0.604539 -0.080736 -0.544880 0.497043 0.397480 1.184805 -1.085120 0.350549 0.074903 -0.978715 -0.916116 0.461522 0.635093 0.083444 0.431970 -0.286283 0.620950 -0.833194 -1.047976 1.158340 -1.292938 -0.272924 -2.770548 2.176889 -0.351736 2.624348 -0.189512 0.647075 -0.740327 1.782862 1.051780 0.129136 1.148362 0.084103 -1.334887 0.094773 -0.223927 -0.756757 -1.124162 1.143329 0.407209 0.012294 0.292745 0.568828 1.053088 0.175090 0.131787 -1.296309 1.355283 0.078802 -0.474018 -0.416079 -0.975205 0.467780 0.605867 0.552378 1.187848 1.988659 -0.642108 0.053501 -1.789489 -2.324250 0.457078 0.966561 -2.623182 0.354644 -0.336179 -0.492227 -0.334848
went 0.460563 -1.016090 0.574101 -0.441375 -0.635032 -0.334913 0.941495 -1.620998 -1.100411 -1.329106 1.444798 -1.012402 0.561965 0.687720 -1.325372 -0.153879 0.647001 -1.486564 0.310571 -0.671239 0.005047 -1.101334 2.224042 -0.100299 0.987521 0.525380 0.359181 -1.308564 -0.792897 -1.283610 0.349659 1.215119 1.036736 -1.910816 1.077266 1.540266 0.378898 0.943672 0.640672 1.370803 0.343041 -0.113421 -0.473322 0.438114 -1.031308 0.452427 -0.663934 0.972871 -1.624924 -1.803960 -0.090061 -0.173943 0.463469 -0.549239 0.376499 0.730061 -1.240444 -1.112372 0.375379 0.001316 -1.459629 -0.621344 1.656790 0.045192 0.878635 -2.016621 -1.641299 -0.301845 -0.879770 -0.194410 0.873304 -0.261713 1.004718 0.290554 0.332292 -0.362238 0.510100 0.612529 -0.704968 1.714875 0.664451 0.822687 -1.157946 0.235567 -1.401654 -0.815183 0.273301 -1.859078 0.249854 -0.630749 1.184692 -0.664941 -1.761341 0.575018 1.592392 -1.013067 1.511356 1.893409 -0.139333 -1.379835 0.016384 2.789411 0.297443 0.500420 0.776781 -0.039691 2.092203 -1.502249 0.229143 0.079285 -1.338209 0.397406 1.269032 -1.504366 2.243716 -1.406242 0.631095 -0.315816 0.158612 0.627332 -0.165898 3.152708 0.116655 0.152783 0.470638 0.097594 0.769377 -0.535301
herself 0.524076 0.119786 2.905131 0.393924 1.079442 0.152927 0.459137 -1.920241 -0.668319 0.828192 0.556959 1.936393 0.430665 -0.358565 1.377974 -0.822295 2.186357 -0.156131 -0.401108 0.874387 -1.257041 0.387530 1.060305 2.098504 0.815828 1.454866 -0.189109 -0.763591 2.214241 1.250989 0.176895 0.535535 -0.731015 -0.575441 1.266426 -1.309187 -1.032144 0.155001 -0.067603 0.545692 1.518758 0.385807 0.222368 0.674527 -1.134206 0.013176 1.607463 0.724040 0.199756 0.707184 1.995736 -1.393459 -1.167457 -0.228079 -0.681553 -0.435307 -0.586233 0.042852 0.567199 0.250713 -1.107072 -0.369967 0.379558 -0.175876 -0.108106 0.475402 -0.835456 -1.848653 -1.202339 1.449803 1.308801 -0.520547 1.302613 1.300266 0.421744 -0.429054 0.160051 -0.850609 -0.540137 -0.449932 -1.134171 0.010947 0.708417 0.761838 -0.057193 0.334642 -0.253089 -0.509287 -0.379901 0.649598 -1.712547 -0.191474 -0.419794 -1.612750 1.779142 -1.562573 0.030859 -0.800786 1.033896 1.441525 -0.290381 -0.499613 -0.771256 1.330910 -0.816129 -0.523716 1.145245 -0.421429 -1.739581 -0.967463 0.585046 -0.369417 0.491220 -0.700817 1.461881 0.519550 -1.260995 -1.142766 0.638981 0.791894 1.087396 0.922172 -0.618330 -0.992877 0.429728 -0.292513 1.232388 -0.895828
again -0.052448 1.538804 0.747522 -0.462445 -1.150720 0.296380 0.598230 0.272781 -0.195021 0.627861 1.835937 -1.295851 -1.120967 0.053023 -0.682965 -0.736447 1.312288 1.233169 0.415966 0.101194 -0.445435 -0.544373 -0.308744 -0.690145 -0.241799 0.054409 -0.190338 -0.048843 -0.219300 -0.084265 -0.534225 -0.260923 -0.402074 0.442721 -2.577776 -0.474289 0.563200 0.051508 0.532196 -0.151770 0.271851 -0.085965 -0.758245 -0.746791 1.606928 1.521339 0.535880 -1.094831 -0.434485 1.346091 -0.834250 -0.056969 0.735457 1.493111 0.256216 -1.529800 -0.045379 0.945446 -1.442880 1.323659 -0.548553 0.974135 -0.449988 -1.146059 -0.056768 -1.485993 -0.060788 -1.388327 1.250296 -0.225022 -1.225322 0.250441 0.041830 0.110732 -0.895916 -0.562908 0.149055 -0.693649 0.620040 0.662641 2.434526 1.225530 1.106277 -0.009389 0.163346 -1.860820 0.576538 -0.765293 -1.030090 0.711000 -1.206896 -1.169688 -0.279153 -0.376170 1.336632 -0.308133 0.305397 -0.452666 -0.064786 0.396536 0.579460 0.334721 -1.927672 0.928696 0.552996 -0.894657 0.846972 -0.342570 -2.119828 -0.149521 -0.139802 0.025067 -1.044660 0.994956 0.655353 -1.333995 0.121994 0.503153 -0.304686 0.267079 0.847720 -0.104837 1.314985 0.043220 0.344375 -1.748031 0.457721 0.180385
when -1.547503 0.410724 -1.767920 1.168062 -1.136178 1.017873 0.695945 -1.589801 -0.202575 0.330447 -1.193929 1.141192 0.542551 1.123442 0.020339 -1.728922 0.152092 0.811550 -1.216060 1.328794 1.019266 -0.934749 0.829871 -1.017161 -0.407510 -1.632153 -1.684618 -0.642809 0.329697 -0.013267 -0.304632 0.567364 0.153528 1.109075 -0.924545 2.342718 0.062188 -0.255782 0.773882 -0.340208 0.938902 -0.555736 0.042718 -0.578408 0.189794 0.572642 0.453795 -1.009418 -0.903237 -0.031098 -0.021195 -0.613717 -0.116970 -1.412480 1.123628 -0.456804 1.249985 0.405370 0.002445 -1.800620 -1.314496 0.294087 0.065955 0.105172 -1.530988 -1.222246 -1.597311 -0.331786 -0.270150 -0.419027 0.969468 -0.359345 -1.110438 0.805346 -0.072417 0.024131 -0.071781 0.586371 0.116340 -0.309981 0.427778 0.671990 -0.315210 0.563909 0.360017 -0.997328 -0.899743 1.178030 -1.078644 -0.305674 0.186986 1.039188 0.078023 -0.352910 1.309138 -0.360312 0.534599 -0.989402 -1.577395 -1.008078 -0.399178 0.582766 -0.386218 -0.261332 -0.862649 0.652218 0.431540 0.999528 0.904239 1.582959 -0.577051 -0.402434 0.320601 -2.651212 0.647739 -0.253578 0.789186 0.892765 0.392296 -0.468177 0.219818 0.899952 0.366061 -0.246506 1.105591 -0.300227 -0.158896 0.197150
would 0.798347 2.051777 -0.719298 0.409473 -1.561520 -0.718429 -0.238816 -0.179047 -1.950527 -0.003627 2.027286 -0.098603 0.774711 -0.919800 0.555479 1.290801 -0.435223 -1.432589 0.464736 0.623674 0.853994 0.565329 -1.331911 1.017118 1.662070 -1.175950 0.162344 -0.323370 0.299763 0.474278 0.966119 0.190109 0.947244 -0.913663 0.351141 -0.598572 -1.656473 1.176295 1.017620 -0.112938 -0.959555 0.689043 1.198233 0.804886 -1.209178 -0.868768 1.088101 0.110228 1.226254 0.497370 -0.423281 -0.744304 0.434023 0.211093 -0.455940 -1.665118 -1.659594 -0.209266 -1.451557 -1.172150 -0.941349 0.163816 -1.383531 -0.829815 0.623585 0.010636 -0.324941 0.690339 -0.457173 2.718729 1.324443 1.094386 1.984926 0.650440 0.578828 -1.291719 0.647072 -1.686451 0.621361 0.201041 -2.944403 -1.817078 -0.339697 -0.429471 0.930141 -0.614762 1.227772 1.347908 0.511337 0.384886 -0.073273 0.427473 -2.647457 0.111291 -0.321712 -0.527370 1.284712 0.212488 0.184372 -0.757570 -0.551498 0.693636 1.880688 -0.108631 0.332270 -1.630314 -1.255687 1.009134 1.868070 0.048892 -1.678498 1.240163 -0.459808 -0.785396 -0.824030 -0.625142 0.045837 -0.111224 0.800257 0.082709 -0.427815 0.272804 -0.400825 0.817619 0.348705 -0.793866 -0.624882 -0.390873
there -0.501323 0.630487 0.506317 0.465570 -0.263351 -0.925630 0.748805 -1.083597 0.700559 0.645171 0.429761 -1.293621 0.517099 1.031448 0.811963 0.000818 0.036831 1.034403 0.094370 -0.104567 2.258743 -0.279336 -1.489943 0.389774 -0.545434 0.592796 -0.270318 -1.307333 -0.454203 -0.192293 -0.507601 0.543882 1.285579 -0.416579 -1.288764 -0.988169 -0.356033 -0.333171 -0.736806 -1.363746 1.907358 -1.138734 1.646058 1.338390 0.047203 -2.386150 -0.935778 -0.266283 0.003384 1.025912 0.558788 1.713183 0.713135 -0.392347 -0.375006 0.329207 1.777057 2.579681 0.887997 0.252507 1.438156 0.734031 0.091363 -1.162334 1.264469 -0.595570 -0.938056 0.120735 3.162291 0.612206 1.242183 -0.274653 -0.733316 1.550472 0.093898 1.301467 0.332618 -1.533984 -1.304256 -0.952487 -0.007417 -0.135305 0.169042 -0.269357 0.361108 -0.442909 0.472220 -0.619632 -1.298365 0.144673 -0.519051 1.165882 1.669563 -0.889831 0.238655 -1.084913 -1.094236 2.461125 -0.636728 -0.965178 0.700548 1.273465 -0.403910 -0.404040 0.639781 -0.031859 0.299826 0.250257 0.123159 0.434969 -0.031494 0.368418 -1.120967 0.440581 0.687155 0.890792 -0.232723 0.701308 0.310133 0.016348 -1.194932 0.539989 0.981833 0.712001 -0.605378 -0.898901 0.623232 1.431499
any 0.044879 -0.427052 -1.097647 -1.442833 -2.358860 0.187483 0.151630 -0.113097 -0.028555 0.008848 1.146675 -0.131277 2.321377 -1.792571 0.621088 1.361648 0.520135 0.668917 -0.470343 -0.596787 -0.248428 1.043540 0.885837 -0.210846 -0.855470 0.700568 1.621278 0.352248 0.277701 -0.616823 -0.403087 1.010376 1.077725 0.741008 -0.062519 -2.658861 1.526551 0.421046 0.186927 0.682038 0.167096 -0.877685 -0.350406 2.384628 2.384621 -0.835626 2.547954 0.329454 -0.845290 0.227741 0.242858 0.949967 -1.610315 0.064425 0.256550 -0.919708 0.380827 -0.709374 -0.736661 0.754480 0.984207 -0.300354 -1.328626 -1.296001 -0.644388 -1.148277 -0.185811 0.538484 0.217702 0.739953 -0.806664 -0.791740 -1.893000 -1.140791 0.926956 -0.179363 0.222971 0.207755 -1.406057 -0.816836 0.085776 -0.041598 0.645329 1.968984 1.616172 0.285196 -0.648770 0.383472 2.716900 -0.165638 0.931079 0.055138 -0.800128 0.683016 0.243512 0.859874 0.220574 -0.501627 1.009167 -0.725026 -0.307986 1.176860 -0.291632 -0.906391 0.679693 1.167470 -0.050942 0.468671 -0.213039 0.853841 -0.104333 0.044472 -0.062506 0.012940 1.004378 0.561781 0.818793 0.595241 -1.157955 -1.903497 0.473013 0.192350 -1.212829 -0.242867 0.301939 -1.410415 -1.187289 -0.301022
could -1.050668 -0.914981 -0.462279 0.173571 -0.688459 0.174594 -0.167592 3.157095 0.166984 0.459155 -0.330061 -0.571730 0.015792 0.343326 0.777613 1.542921 1.771403 -0.859417 0.912373 0.553065 1.107078 0.143472 0.327179 -0.247845 0.162711 1.207185 0.017206 -0.308771 0.080650 -0.998146 -0.454375 1.763511 1.271418 -0.759427 -0.107776 -0.300698 0.634397 0.326761 0.241059 -0.335090 -0.364151 -0.782549 0.827662 -0.951826 0.889642 0.403980 0.018631 -0.159435 -1.416381 -0.019930 -1.023718 0.796588 -0.372438 0.341280 -1.301821 0.738267 0.513582 -1.720113 -1.896711 0.252667 -1.105227 -1.588566 1.175401 -1.841351 -1.087445 -2.213663 -0.153172 -0.065573 -0.133901 0.191689 -0.220909 0.339125 0.740525 0.914321 0.981592 -0.846311 0.223777 -0.356031 -1.222382 2.190602 0.445334 1.260389 -0.667343 0.108518 -0.434731 -1.372902 0.201438 -0.461821 0.126120 -0.324573 -1.397758 -0.651348 2.107013 0.671666 -0.910549 1.391397 0.125693 -0.177743 0.932564 -0.723064 0.913213 -0.190412 1.663651 1.100249 0.588862 0.344061 0.387740 -1.068187 0.069605 0.372238 1.600093 0.916984 0.586705 1.280868 -1.931944 0.126206 1.076826 0.568957 -1.103021 0.884546 0.733686 0.982023 -1.571319 1.809345 0.656368 -0.838249 1.003933 0.787336
thought 0.239596 -1.825611 0.257756 -0.389967 0.448163 -0.380266 -0.623609 0.956444 -0.931496 1.397820 -0.408456 -2.519793 -1.355377 0.114379 0.525372 0.883998 0.091605 0.313742 0.681710 0.262220 -1.546670 0.315667 -0.326802 0.188373 -0.029351 -0.544510 0.300107 -1.295546 1.140082 1.025238 -0.940288 -0.931500 -2.558873 -0.396125 0.325748 -0.964073 1.636115 -0.288631 -0.130004 0.983972 -1.292684 -1.118773 -1.519563 0.787095 1.253064 0.500768 0.022498 1.060696 -1.270719 -0.604877 0.789093 -1.504789 1.421379 1.201226 -0.300207 -0.956700 -0.401507 1.739584 -0.675126 -0.326547 0.815311 2.566349 1.124256 -0.431070 0.510095 -1.706561 0.609280 0.964689 0.616630 -1.707776 0.819920 1.782700 0.952269 -0.214039 -1.982315 0.367914 0.951570 1.828619 0.636531 -0.275926 -0.078640 1.524793 0.086454 -0.584239 -0.909885 0.497355 0.228771 -1.120348 -1.205718 0.159188 0.097226 -0.160081 -0.101724 0.961040 -0.358956 0.772509 -0.675795 0.401886 0.103634 0.112652 0.394320 0.307924 -1.353037 -0.237388 -1.622443 0.318050 1.003119 -0.601998 -0.989304 -1.862983 -0.669798 -0.051636 0.072377 -0.371696 -0.542837 0.566472 2.389140 1.407803 0.577439 -0.094281 -0.685582 0.104031 -0.707664 0.218181 -0.828466 -0.461732 -1.240920 -1.538258
off 1.641038 -0.306319 -1.458430 1.035354 1.224764 0.397007 -0.855759 1.071470 0.355791 1.433097 0.372643 -0.394624 -0.088837 -0.126515 -0.571091 0.815875 0.556581 0.003584 0.682445 -1.297140 0.076612 0.447456 -0.559931 1.834486 0.024743 1.368527 -1.128124 0.788655 0.074186 0.497210 -0.328190 -1.253556 -0.780623 1.438920 0.230363 -1.255742 -0.475049 -0.065481 -0.716919 -0.856577 1.519351 0.666287 -0.718292 0.456194 -0.280947 -0.647601 0.243144 -1.471448 0.710090 -0.880343 0.152502 1.130153 -1.161799 -0.411944 2.008985 -1.048129 -1.792163 -0.347767 -2.092588 -0.846570 -0.346504 -0.146648 0.579528 0.876630 -0.177524 1.367842 0.449121 -0.118397 -0.068208 -0.810854 -1.335410 -1.009913 -0.553354 -1.776448 1.290491 -0.484719 0.952057 0.415984 1.728238 -1.417381 -1.676299 -1.885741 0.742922 -0.208500 -0.821535 -0.746986 0.666170 -0.410583 2.846131 1.353666 0.187887 -2.161386 0.351134 -0.758786 0.412458 -0.197359 -0.813263 -0.437625 1.273070 0.383359 -0.205499 -0.936015 2.525397 -0.349371 0.491824 -0.312607 -0.086527 -0.044189 0.336472 0.001681 0.797289 0.919210 -1.334107 -0.095104 -0.038204 -0.199530 -0.257759 -0.318725 0.440985 -0.265352 1.288958 -0.106492 0.478220 1.546801 0.232165 0.773763 -0.136414 -0.164132
are 0.192224 0.186219 2.703950 -0.610961 0.463514 0.438791 -0.189974 1.271990 0.002541 0.050058 0.141234 -1.202356 -0.767989 2.359812 -1.020814 -0.048048 0.069015 0.937052 0.575472 1.314322 0.097011 -0.950349 -0.160242 -1.435644 1.391666 -0.768638 0.779088 0.166290 -2.061971 1.588652 -0.004609 0.540086 -1.261627 -0.930657 1.032048 -0.294809 -0.105027 0.952809 -0.689721 0.447776 0.006597 0.055435 -0.832891 0.737607 -1.861302 1.223887 -0.005767 0.901792 -0.724181 -0.643048 0.041704 -1.166098 0.687798 1.602115 1.102122 -0.481959 -0.732876 1.358247 -0.988608 1.883729 0.730030 -0.552922 0.027970 -0.251950 -1.276173 0.620628 -0.033749 -0.576534 0.448218 -1.250615 -1.357995 1.073157 -2.561126 0.019296 -0.145942 1.857847 1.199579 -1.432543 -0.141776 -0.528477 -0.052020 -0.278756 -0.761803 -0.400858 -0.719250 -0.523536 0.377404 -1.848413 0.693068 0.304737 1.017304 1.189218 0.142229 -0.703885 2.113170 1.174881 -0.152278 0.194756 0.935820 -0.214889 -1.704036 -1.207199 0.328055 1.885419 -0.257509 1.823158 0.215819 0.583338 2.113299 0.873095 -1.693143 0.322583 -1.245881 -1.709305 -0.905022 0.827653 0.425378 0.469050 -0.404445 -1.338441 -1.122653 -0.243264 -0.873628 0.580275 -1.689123 0.396059 -1.040186 0.596461
see 0.723500 1.151854 -0.220895 1.319958 2.155991 -1.482072 -0.724982 0.081115 0.337068 -0.360334 -0.961219 -2.100089 -0.553561 -0.391617 -0.881659 -2.157609 0.320755 -1.475635 -0.046605 -1.444423 -0.524865 1.283432 1.223517 0.298858 -0.499057 -2.638803 -1.127115 0.439137 -0.330229 2.020287 -0.553646 -0.385040 0.894602 -0.125849 -0.296516 0.700394 1.254622 -0.621853 0.231284 -0.814914 0.681026 -0.336111 -0.517936 0.317703 -1.401739 -0.077433 0.740239 -0.163010 1.029945 1.415921 -0.608850 -2.183459 -1.439925 1.090513 0.978522 -1.159016 0.904362 -0.323379 0.327861 2.254729 1.545710 2.141009 0.577825 0.122681 -0.414859 -0.218313 -1.311474 -1.209364 0.256725 -0.417990 0.830189 1.359190 0.113616 -0.704506 -1.312451 -0.952961 -0.467792 -0.949260 0.043872 -0.613641 0.128541 0.654112 0.992081 -0.847263 0.744375 0.171432 0.113122 1.064651 0.441570 -1.658661 0.477860 -1.413597 0.413286 1.067338 -0.951020 -2.322256 -0.321545 0.271099 0.003704 -0.995040 -1.619812 -0.783281 -0.070800 -0.665394 -1.009931 -0.364031 -0.491677 0.904698 0.675934 1.333279 0.140660 0.422319 0.808242 -1.144750 -1.077551 -0.937449 -1.311561 -0.001253 0.918657 -0.528411 1.232076 0.008072 -0.863981 -0.565257 -1.095153 0.854502 0.880902 -1.005535
time 0.303042 -0.568759 -1.006464 -0.567974 0.004195 0.067758 -0.592405 -0.229364 1.208705 -0.562966 -3.393661 -1.429317 -2.239299 0.399702 1.262952 0.120696 -1.296132 1.248062 -0.751024 -2.018333 0.139783 -0.803825 0.211289 0.050455 0.030916 -0.404111 0.157910 0.384449 -0.148484 -1.531204 -0.097073 -0.050902 -0.873678 1.357611 0.442797 1.036707 0.410170 0.011481 0.309529 -1.332372 -0.220015 -0.624883 -0.377306 1.929510 0.800672 2.127977 0.551693 -0.474380 0.621365 -0.868616 2.192727 -0.591518 0.373503 -1.516264 0.257253 0.233186 0.653959 -1.033918 0.150282 -0.218228 -0.017243 -0.382832 -0.396329 -0.222640 0.422490 -1.586341 1.416747 -1.277228 0.274584 0.090298 0.447091 -1.939538 0.161663 -0.342491 -0.835022 0.479140 0.081506 2.217639 -0.282297 0.578621 1.637287 1.272252 2.009821 -0.288835 -1.434896 -1.134220 -0.623808 0.969884 -0.838425 -0.162929 0.431917 -0.917489 -1.378123 0.328407 -1.695592 -0.814751 0.702925 -2.308420 0.925709 0.948905 -0.349357 1.237008 -1.552961 -0.526075 0.515365 1.840351 -1.540353 1.320215 -0.463207 2.399197 1.241182 -1.029579 -1.656934 0.222027 -0.396729 -1.185143 -0.729383 -0.065661 0.721180 -0.289687 -0.315548 -0.669482 0.410828 -0.415911 -0.831833 0.505582 -0.544729 -0.068409
queen 1.084875 -0.128724 0.519452 -0.203632 0.046352 -1.277883 0.428563 0.350351 1.385227 0.610551 -1.240482 -0.235775 1.020648 -0.596689 0.397040 0.430289 -0.356661 -0.831594 -1.095841 -0.432428 0.379023 0.709609 0.096257 0.514911 -0.926104 -0.126928 0.565845 1.310176 -0.002336 0.315632 0.824718 0.159390 0.758355 -0.539064 -1.280806 -0.581556 0.023640 0.180861 -0.170355 -1.170215 1.293086 0.127645 -0.208062 -0.487980 0.376758 0.241706 -0.829368 -0.917085 1.015655 -0.219694 1.661491 0.989046 -1.457819 -0.730163 -2.102289 1.014593 -0.572666 1.679619 0.990206 1.180314 -0.024814 -0.054733 -0.345892 -0.164289 0.044042 1.062906 -0.737468 -0.164799 0.030084 0.828789 0.256901 -0.677797 0.379785 -0.652199 -3.262583 1.124563 -0.445297 0.981047 0.272893 -0.026434 -0.714129 -1.535223 0.417676 2.537402 0.702986 2.091323 0.141772 -0.621161 0.648267 -0.706322 -1.697208 -1.572658 0.617398 -0.718397 -1.096804 -0.089518 0.179129 0.753327 -0.703071 -0.681752 0.696927 0.108379 -1.106583 0.565584 -0.078803 -1.007406 1.095329 -0.359106 -0.198465 -0.452948 -0.279273 -1.144534 -0.494506 1.302601 0.636501 0.181103 0.768768 -0.246594 -1.003398 1.110778 -0.380042 0.074524 1.028272 -1.996327 -0.667384 -0.135991 -0.283553 -0.094368
into -0.071814 -0.975146 -0.977093 2.493244 -0.965505 0.974735 -0.326798 1.055426 -0.279676 -0.528788 2.570864 0.308539 -0.195543 0.745330 -0.331331 0.643395 -1.574258 0.140274 1.106492 -0.332915 -0.459676 -1.481865 -0.050991 1.790333 1.004959 -0.289568 -0.759487 1.516376 -2.251851 2.006786 -1.154274 -0.592706 0.135563 0.288072 -0.083428 -0.069312 -1.551304 1.540958 -0.082566 -1.142236 -0.111034 0.534253 -0.342690 0.524141 -1.135332 0.491734 0.662555 -0.969310 -0.239697 0.661044 1.422788 0.588076 -0.075337 -0.830103 1.111183 0.847522 0.469870 0.408871 0.873018 0.398693 2.067677 -1.127975 1.073739 1.363728 0.211180 -0.570725 1.348049 -1.319349 -1.041402 -0.449883 -1.274057 0.243789 1.471556 -0.858125 -0.893469 -0.125645 -0.516008 0.041959 -0.853155 1.402791 1.279441 0.027158 -0.413414 0.696831 2.047668 1.686531 -0.649875 -0.972074 0.623592 0.602171 -0.257713 -2.171805 0.156296 -1.955263 -0.202869 -2.094119 -0.822193 -1.622011 1.090294 0.063308 0.435890 0.647992 -1.860693 0.235838 0.812539 -2.260221 0.506353 -1.285706 -0.790497 -0.357727 -0.282405 0.881865 1.964969 -0.559394 -2.296493 0.432497 0.669213 -0.155759 -0.192898 0.331884 0.216030 -1.697178 1.297765 -0.135860 -0.082346 -0.138203 0.540862 -2.148989
how 1.643483 0.153916 -0.345418 -1.247553 0.875482 -0.730482 -0.235398 -1.440842 0.168416 -0.919679 0.132460 0.305780 -0.241902 -0.084951 1.285707 1.428191 -0.618836 -0.290637 -0.407753 0.987215 0.350557 -0.894628 -1.538949 0.612491 0.758717 0.439089 0.386771 1.225529 0.121266 0.364257 -1.185446 -0.913677 0.952910 -0.218330 -0.125160 0.254541 0.934863 -1.163331 0.972344 -1.245361 0.503173 0.593800 -1.597796 -0.020937 -1.041244 -1.224072 0.394316 1.142039 0.281408 -0.496751 0.421294 -0.789263 -1.475587 0.028368 1.427018 0.266917 0.400314 0.202914 0.773435 -0.509863 -1.673084 0.363438 -1.126935 1.507568 0.843705 -1.133218 0.564197 -0.961659 -0.180911 -0.522180 -1.154595 -0.257070 -0.609696 -0.186207 -0.106131 -0.339794 0.610905 1.125790 0.455993 0.200898 0.677025 1.041442 0.008593 0.072566 2.970392 1.061456 -1.371136 0.015010 1.224254 0.027287 0.746126 -1.486870 -1.304119 -0.041816 -0.518606 0.575278 0.658589 -1.386932 -1.467637 0.572381 1.031747 0.064815 -0.069070 -0.670039 0.915126 -0.687061 -0.858346 0.787826 -0.084281 0.358354 -1.502865 1.095647 0.485629 0.022958 1.082204 -0.023529 -0.012001 0.087286 0.622637 0.458243 0.423717 0.930734 0.459798 -1.012889 1.696099 -0.325482 -0.301711 0.879137
who -1.317770 -0.981376 1.834495 1.481706 1.259154 0.968491 0.732270 -0.866744 -1.677495 -0.527096 2.172079 -0.469998 1.159488 -0.289980 1.171900 -0.705038 0.682092 0.444250 -0.433354 -0.732359 0.226617 1.386367 1.809660 -0.547311 1.891099 0.093840 0.535377 2.122472 -0.632629 1.173025 0.076583 -0.265871 0.832959 2.207310 1.114370 0.001048 -1.562343 -1.079275 1.132419 -1.155931 -0.409190 0.242452 -2.075312 -1.377211 0.164488 -2.555873 -0.719979 1.545161 -0.363792 -0.644729 -1.950854 -0.678275 0.546738 -0.578303 1.362594 -1.123955 -0.324605 -1.072308 -1.162896 1.524429 0.794274 0.851356 -0.024592 -0.235801 0.935889 0.761244 0.690690 0.441502 -0.614231 1.064246 -1.652251 -0.376659 -0.001074 0.492933 -0.349599 -1.523196 -0.129621 0.852939 0.912829 0.451696 -0.682161 1.504669 1.571446 -1.961376 0.028255 1.745478 -1.782641 -0.652400 -1.108517 2.593639 2.942544 -0.092774 -0.636560 1.719206 0.082591 -0.393083 -0.240068 0.454281 0.126529 1.699889 -0.832959 -0.368482 -0.698300 -0.917018 -0.962199 1.685762 -0.842505 0.790987 0.367196 1.153124 -1.234541 0.938738 -1.227875 -1.725572 1.428159 -1.929860 -1.252305 1.735594 -0.590549 0.588901 -0.838265 0.376633 -0.464419 -1.418047 -0.824184 -0.468992 2.005708 1.196323
me -0.162376 1.062487 -2.483361 0.350259 -1.017427 -1.138093 1.166152 -1.339002 0.485810 0.637383 -1.559909 0.999911 -0.419799 0.954698 -0.497327 -1.154968 1.815808 -1.258475 0.094574 0.046655 1.178903 0.565591 0.261818 -0.879526 1.598137 0.421468 0.992555 -0.593848 0.775851 -0.028692 -1.043106 0.750357 -1.329426 -0.300294 0.281807 -2.073028 1.237351 0.654293 -1.688866 1.341334 0.247209 -1.401259 -0.735295 0.699534 1.500568 0.892386 -0.019273 1.693480 -0.390965 0.242762 -0.623646 0.040713 0.744216 1.080799 -0.714972 -0.391325 -1.943457 -0.767079 2.160379 -0.536940 0.402067 1.593982 0.804364 1.790529 1.957899 0.502583 0.726444 -0.280795 0.041531 0.001785 1.615122 -0.379720 0.374679 0.189642 -0.028046 1.194981 -0.110838 0.088984 0.748169 1.019571 0.518186 0.548597 0.804287 0.511645 0.091927 1.177043 -0.491996 0.340499 1.631073 0.354433 -1.496706 -1.088406 -2.120716 -0.623104 1.166616 -1.091557 -0.654517 1.628528 -0.187574 -0.269877 1.275167 -1.136101 -1.952301 0.672266 -0.217751 -0.000669 1.505807 -0.397225 0.693757 -0.136989 -0.130674 -1.455712 0.443274 -0.037168 -0.212852 -0.426109 -1.657502 -0.598700 -0.126874 0.953929 -0.008456 -0.828064 0.424023 -0.550426 -0.788642 0.781316 -0.290349 -1.875113
your 0.252292 -0.105764 -2.375956 1.500041 0.166994 -0.964866 -1.271117 -0.521187 -1.454681 0.814551 -0.075049 0.714577 0.626600 0.052147 -1.744626 -0.683538 -0.177191 -1.403251 -0.476761 0.429398 -0.121720 -0.316030 1.523235 0.950919 -0.602451 -0.232195 -1.250979 1.100785 -1.166977 0.130130 0.517679 -0.874375 0.724592 0.188641 0.702800 -0.762066 -1.408035 0.856694 -0.147332 -1.227045 -0.800754 0.015285 -1.120794 0.729344 -1.007694 -0.095161 -0.066273 -1.499386 0.194646 0.025162 0.101136 0.958625 0.469150 -0.252327 -0.977968 1.269253 0.419665 -1.089345 2.221211 -0.308259 2.896291 -1.144777 -1.431814 -0.782334 -1.382632 0.392050 0.499577 -1.318048 -2.511895 -0.894140 0.925882 0.978018 -1.002037 -0.973538 -0.571268 -0.233456 -0.900106 -0.367069 -1.354214 -0.088721 -0.493792 -1.339577 0.958310 0.146003 -0.159900 0.357490 0.260595 0.341977 -0.815533 -1.328766 2.226405 0.453978 -0.074420 -1.328068 -0.911654 -1.167243 0.897958 0.836076 0.649015 -1.902705 0.500508 1.115179 0.254521 0.125437 1.177330 -0.280465 -1.530009 0.361357 -1.563781 0.824788 0.064533 1.236615 -0.011164 1.777083 0.125913 1.093498 1.311154 -0.925885 -1.004626 -2.089817 1.677075 0.190117 -0.956506 -0.258502 -0.741756 0.930545 0.979797 0.775293
did -0.679759 -0.343982 1.022310 -1.051695 -0.497284 0.766003 -0.109095 -1.769434 -0.148723 0.190767 -0.650903 -0.095990 -0.959565 -0.302467 -0.499070 0.107661 -0.606749 -1.285073 -0.368579 0.047898 1.073053 0.580703 -1.181152 0.979386 -1.521126 -0.982977 1.314374 -0.142656 1.264484 0.406844 -1.059656 -0.371083 0.344980 -0.224383 0.430579 -1.442221 0.095767 1.083515 -0.799287 0.637493 1.043072 -2.141810 0.781065 0.492292 -0.753002 -0.525663 -0.098331 0.218423 -1.938277 -2.129746 -1.737676 -0.772859 0.858431 1.713007 -0.001085 0.193902 0.071830 0.455086 -0.066039 0.011729 0.033045 0.065613 1.029737 0.303972 -0.799378 0.327222 -0.098368 -0.358366 0.065398 -0.665070 -0.138705 -1.969564 -0.208666 -0.030713 1.286657 -0.593823 -0.593921 -0.561502 -1.607781 0.204894 1.052303 -0.930929 0.050590 1.324813 -1.011162 -0.947952 -0.563013 0.844659 0.126679 1.104561 -2.456087 -0.334504 -0.169135 -0.552922 0.084590 0.319437 1.971828 0.886789 0.555090 0.842417 -0.781527 0.940316 1.145700 -1.152784 -0.890287 0.796346 0.229550 0.183867 -0.591069 -0.726770 -0.608621 -0.179268 -0.551697 -1.531718 -1.668058 0.435465 0.258765 0.222686 -2.132098 -1.006005 1.042992 0.908263 -0.142367 -0.302757 -0.901507 0.157776 1.649032 -1.578956
an -2.233485 -0.884501 -1.483919 -0.907566 -0.063950 -0.314172 -0.872625 -0.356109 -0.558647 -0.144312 0.748222 -0.869114 0.832687 1.445354 0.969213 -0.628464 0.241690 -0.040643 0.602154 -0.156657 -0.658366 -0.061587 -0.115259 1.942954 -1.091147 0.236028 0.795555 -1.197553 -0.188087 0.982197 -1.383589 0.761589 -0.640599 1.140573 1.203580 -0.762808 0.617222 -1.913551 -0.342485 -0.083036 1.438011 -0.827555 2.070885 -0.625790 0.031168 2.662828 0.941207 0.111078 -0.504585 0.412590 0.039361 1.612804 -0.215723 1.309975 0.181696 -1.406059 -0.553428 -0.351792 -1.461209 -0.006320 -1.311512 0.589293 -0.607893 0.676463 0.552088 1.365141 0.955249 -0.591312 0.040727 1.220679 -0.460237 -0.183983 1.093046 0.800663 0.754698 0.694048 1.438960 -0.942271 1.465056 0.812708 0.037879 0.642872 1.528676 1.475785 -0.078410 0.570341 -0.496909 0.363003 -0.618031 -0.286084 0.873334 -1.706738 2.062589 0.038746 -0.745518 0.095859 0.015156 0.013497 0.092989 0.595921 0.623899 -0.801283 -1.250431 -1.503098 0.726797 2.954684 -0.372424 -0.203385 -0.704758 -1.957696 1.426499 -1.211967 0.484427 -0.227047 -3.406460 1.141104 -1.885784 -1.319286 -3.124058 -0.024074 0.105720 1.034410 0.073692 -0.485229 -0.896521 -1.358094 -1.276550 1.712423
king -0.040320 0.196783 0.224269 -0.263567 0.412404 0.394997 -0.171285 -1.497257 -0.063165 -1.217294 0.873012 1.462094 1.684812 -0.113309 -1.490837 -0.300891 -0.251015 -0.345118 1.532694 0.448194 -0.176998 -0.132446 0.708840 0.618711 1.492559 0.113284 -1.808993 -0.194295 0.997192 -0.614255 -0.865748 -0.132672 1.344702 -0.890261 1.975186 -1.393541 -0.118281 -0.395437 2.213025 2.850634 1.174534 -1.604716 -1.431344 -0.064142 -0.445051 1.944963 -0.559588 0.177388 0.272756 0.064925 -1.009766 0.644225 1.199847 -1.119721 0.732314 -1.950415 -1.160005 0.329447 1.167062 -0.714604 0.439933 -1.504305 0.492076 -0.089041 2.281405 -1.048055 -0.656463 0.314894 -0.521626 -0.123116 0.987060 -0.090025 -0.192266 -0.115747 0.034148 -0.161227 0.890815 -1.167408 -0.979970 1.292441 -0.260346 -1.274165 0.558569 2.001317 -0.271033 1.517016 -0.164609 -0.125242 0.598795 -1.267759 -1.763354 -1.921317 -0.015439 2.470549 1.295045 0.578468 -1.188136 -0.558115 -2.185308 -0.686703 -0.737229 -0.264866 0.701325 -0.097667 0.835662 0.547222 -2.390465 1.054632 -0.676749 0.154525 -1.593678 1.582035 -0.346168 0.097521 0.011205 -0.471763 2.079320 0.933846 1.430946 0.851629 0.496757 -1.495980 0.701024 -0.329028 0.231694 -1.076153 0.195534 0.112906
well -0.774345 2.135125 0.557014 0.426275 2.106254 -1.612270 0.710235 0.194410 -0.226789 0.376732 0.033716 -1.002017 -1.508210 0.830607 0.396648 -0.885698 -1.223995 -0.460465 0.412277 0.468540 0.077027 2.832665 -0.498242 0.058772 1.169525 -1.573325 1.360047 -1.505625 0.754638 0.322028 0.994704 -1.229595 -0.358276 -0.218064 0.152212 0.167327 -0.956916 0.911503 0.277776 -0.353994 -2.098801 -0.201091 -2.951463 0.035202 1.780454 -0.471011 -0.438610 -0.314200 0.623307 0.195735 0.741521 0.866250 -0.826824 -1.193941 -0.211753 1.538033 0.051492 -0.411718 0.218303 1.338384 3.235481 0.428501 -1.009870 -0.243265 -0.042408 -0.325084 0.212357 0.987278 -0.296887 -1.455389 -0.013332 0.700878 -0.161993 -1.363528 0.321896 -0.873122 1.754193 0.330883 -0.709175 -0.475116 0.332008 0.027574 -1.622676 -0.123431 -1.736814 0.725006 -0.916738 -1.750394 -0.311744 -0.463565 -0.320234 -1.128427 -0.139464 0.647819 -1.180288 -0.926653 0.312029 0.694363 -0.376825 -0.162890 -0.350636 -0.119052 -0.018331 0.932740 -1.334608 -0.617690 -1.484899 -0.057699 0.458477 -0.699582 0.012897 0.148095 0.927821 -2.172974 0.127682 -1.181202 0.005379 -0.364185 0.456660 1.242198 -0.514812 -0.743280 -1.683700 0.783122 0.943587 -1.822304 -2.603435 0.719474
dont -0.952673 -1.274390 1.228769 -2.999582 -0.980339 0.508911 1.739652 -2.827811 0.313731 -0.704798 -0.084476 -0.194238 0.542630 -0.339718 -1.088661 -0.488589 -0.460780 -0.442924 0.574343 -0.264191 -0.481544 -0.712992 0.975106 1.531421 0.426043 0.108901 -0.526217 -0.270594 0.059916 -0.886906 -0.643274 0.610806 1.034926 -1.155611 -0.674360 -1.504124 -0.792378 0.068298 1.005690 0.065184 1.992120 -1.977208 1.835362 -0.226461 0.484092 0.251729 0.081125 2.257874 0.889162 -0.678065 -1.221579 2.007987 -1.378250 0.021778 -0.073303 0.798454 0.787944 -1.125916 0.696405 -0.324296 -0.465614 -0.039165 0.485736 -0.020436 -0.568205 -1.636361 -0.504969 0.140129 1.282623 -0.123423 -1.573304 0.340925 0.553098 1.027628 0.877695 -0.606007 -0.262362 -0.184027 0.259720 0.766072 1.450817 0.279609 0.461117 -1.453037 0.578645 0.106559 0.244805 -0.061407 1.291222 0.845565 0.027321 1.269091 0.062711 -1.179026 -0.944330 -1.661522 -1.815386 -0.288683 -1.164492 -1.081772 -0.642481 -0.870813 0.228597 0.195713 -0.700232 0.557757 0.200654 0.330366 0.243346 -0.669767 -0.988548 -0.038345 -0.133053 0.120770 1.039997 -0.684795 2.050205 0.661963 1.023135 0.134760 0.358348 1.780549 1.171586 2.100085 -0.683386 1.447765 0.920425 -1.494634
my 0.491137 -1.825160 0.020347 -1.239291 0.412436 -0.211793 -0.973817 0.558720 1.563952 -0.238887 0.584058 -0.543627 -0.840266 -0.463515 1.373009 -0.680044 -0.465685 0.476692 0.178202 3.236541 0.481602 0.052464 0.141918 -1.040170 0.133941 0.625759 -1.216412 0.101297 -1.260452 0.906264 1.257621 0.306765 -0.123119 0.128528 -1.544160 -0.152288 -0.420385 1.316494 -1.110751 -0.943789 0.245226 0.676851 -0.210362 -0.037046 -2.609161 0.322499 -2.189499 -0.268284 -1.313203 -0.477812 -0.215214 -0.061446 1.372083 0.737017 -0.056734 -0.259131 -0.751426 0.658026 -0.321009 0.125895 0.629281 0.133370 -0.566561 -0.611096 1.268845 0.353002 0.128676 0.573349 -1.135477 0.339855 -0.133171 -0.159539 0.927388 0.426153 0.934422 -0.201917 0.040824 -0.015234 -0.027132 -0.031412 1.900068 0.064426 0.175622 -0.511834 0.650888 -0.475187 -0.667803 -2.365490 -0.171354 -0.383868 1.548199 3.162335 0.193845 -0.285383 -0.604682 0.519839 1.714445 0.292244 -0.109007 -1.576440 -2.050973 -1.560408 -0.367855 0.429980 -0.768324 -1.656460 -0.178088 1.533491 -0.291895 1.769374 -2.301139 0.960914 0.681995 2.048231 -0.182458 1.945051 -0.883214 -0.054631 -1.469446 -0.652087 1.462074 0.910765 -2.172215 -0.203324 0.692949 -1.689894 1.042166 -1.110595
